tree
version=v4
num_class=1
num_tree_per_iteration=1
label_index=0
max_feature_idx=41
objective=regression
feature_names=feature_antistrophic_striate_conscriptionist feature_bicameral_showery_wallaba feature_bridal_fingered_pensioner feature_collectivist_flaxen_gueux feature_concurring_fabled_adapter feature_crosscut_whilom_ataxy feature_departmental_inimitable_sentencer feature_dialectal_homely_cambodia feature_donnard_groutier_twinkle feature_elusive_vapoury_accomplice feature_geminate_crummiest_scourer feature_glandered_unimproved_peafowl feature_hempen_unionist_cone feature_illuminated_gambrel_noria feature_jacobinical_symmetric_roll feature_jewish_stained_disembowelment feature_lacklustre_centroidal_schweitzer feature_limiest_heliolithic_york feature_maledictive_latter_psellism feature_mendelian_undiscording_avion feature_musicianly_aspirate_creativity feature_petty_upraised_caddice feature_pottier_unmanly_collyrium feature_reclaimed_insurrectional_moneyer feature_saddening_unsound_rustling feature_simulated_nonclassified_intercessor feature_snakiest_somalian_wavelet feature_splanchnic_notional_pint feature_strained_equivocal_phoneme feature_stretchy_spiniest_fizgig feature_toltec_korean_disfavourer feature_transisthmian_yogic_linden feature_tridactyl_immoral_snorting feature_trimeter_soggy_greatest feature_unanalyzable_excusable_whirlwind feature_unbreakable_constraining_hegelianism feature_unformed_bent_smatch feature_unministerial_unextenuated_teleostean feature_unmodish_zymogenic_rousing feature_unsystematized_subcardinal_malaysia feature_willful_sere_chronobiology feature_zoological_peristomial_scute
feature_infos=[0:4] none none none none [0:4] [0:4] none none [0:4] [0:4] [0:4] [0:4] none [0:4] [0:4] [0:4] [0:4] none [0:4] [0:4] none none [0:4] none [0:4] [0:4] [0:4] none [0:4] [0:4] [0:4] [0:4] [0:4] [0:4] [0:4] [0:4] none none [0:4] [0:4] [0:4]
tree_sizes=2802 2978 2987 3017 2969 2968 2996 3019 3024 3003 3025

Tree=0
num_leaves=31
num_cat=0
split_feature=26 20 15 39 36 27 9 34 34 25 34 30 29 25 36 34 10 16 23 15 6 10 30 17 17 27 41 32 36 16
split_gain=0.877271 0.932445 0.686659 0.783689 0.867663 0.784121 1.46458 0.937014 0.738587 1.06003 0.751111 0.726179 0.990243 0.881444 0.694445 0.638137 0.605315 0.7552 0.617016 0.704769 0.671953 0.596199 1.10232 0.733298 0.731667 0.650799 0.643322 0.594969 0.569717 0.664082
threshold=2.5000000000000004 3.5000000000000004 1.0000000180025095e-35 3.5000000000000004 1.0000000180025095e-35 3.5000000000000004 1.5000000000000002 1.5000000000000002 1.5000000000000002 3.5000000000000004 3.5000000000000004 1.0000000180025095e-35 1.5000000000000002 1.5000000000000002 3.5000000000000004 1.5000000000000002 1.0000000180025095e-35 2.5000000000000004 3.5000000000000004 1.5000000000000002 1.5000000000000002 2.5000000000000004 1.0000000180025095e-35 1.0000000180025095e-35 1.0000000180025095e-35 2.5000000000000004 2.5000000000000004 2.5000000000000004 3.5000000000000004 3.5000000000000004
decision_type=2 2 2 2 2 2 2 2 2 2 2 2 2 2 2 2 2 2 2 2 2 2 2 2 2 2 2 2 2 2
left_child=1 2 -1 4 11 7 -7 -5 14 16 -11 13 -13 -4 -8 -14 17 -10 19 -18 -20 -9 23 26 -24 -26 -23 -22 -3 -30
right_child=-2 28 3 5 -6 6 8 21 9 10 -12 12 15 -15 -16 -17 18 -19 20 -21 27 22 24 -25 25 -27 -28 -29 29 -31
leaf_value=0.50048106169198647 0.49968031496292459 0.5003715745922781 0.50524871332731247 0.50094863597407269 0.49982019430100616 0.49810338475292582 0.50408000461205771 0.49984477072066275 0.49001750934991878 0.50241333881462547 0.51541333841229409 0.49506259281970405 0.49834133084317173 0.49959724685289497 0.51449667202378246 0.50088462261854594 0.4944785552079215 0.5023171850544399 0.51039721077978384 0.50152624225914255 0.50324151162481334 0.48286788409983955 0.50396263470995173 0.49663663998442253 0.49680388624783328 0.50234389485411302 0.49470500579173299 0.49455619662063416 0.50219088109911014 0.49942575029160363
leaf_weight=4932 25212 5974 82 1799 18117 221 48 1823 24 20 25 201 1479 435 24 296 46 26 31 155 323 22 71 103 201 72 24 21 944 282
leaf_count=4932 25212 5974 82 1799 18117 221 48 1823 24 20 25 201 1479 435 24 296 46 26 31 155 323 22 71 103 201 72 24 21 944 282
internal_value=0.499909 0.500061 0.499941 0.499837 0.4997 0.500393 0.501677 0.500093 0.50274 0.502223 0.509636 0.498825 0.498389 0.500494 0.507552 0.498765 0.50169 0.496413 0.502149 0.499913 0.503347 0.499428 0.497885 0.494293 0.499441 0.498265 0.489044 0.502711 0.500573 0.501555
internal_weight=63033 37821 30621 25689 20610 5079 964 4115 743 671 45 2493 1976 517 72 1775 626 50 576 201 375 2316 493 149 344 273 46 344 7200 1226
internal_count=63033 37821 30621 25689 20610 5079 964 4115 743 671 45 2493 1976 517 72 1775 626 50 576 201 375 2316 493 149 344 273 46 344 7200 1226
is_linear=0
shrinkage=1


Tree=1
num_leaves=31
num_cat=0
split_feature=26 20 27 9 39 40 32 33 9 35 16 31 14 39 32 9 35 40 33 6 39 26 31 10 10 35 31 27 16 20
split_gain=0.791736 0.841533 0.60894 0.948303 1.67409 0.953371 0.811865 0.644568 0.828447 0.808206 0.64692 0.59294 0.590429 1.19033 0.939985 0.5867 0.996626 0.720518 0.584929 0.555903 0.561775 0.505978 0.555299 0.711119 0.499373 0.488557 0.595186 0.525825 0.756467 0.472714
threshold=2.5000000000000004 3.5000000000000004 3.5000000000000004 1.5000000000000002 2.5000000000000004 1.5000000000000002 3.5000000000000004 2.5000000000000004 2.5000000000000004 2.5000000000000004 1.0000000180025095e-35 3.5000000000000004 1.5000000000000002 1.0000000180025095e-35 1.5000000000000002 2.5000000000000004 3.5000000000000004 2.5000000000000004 1.0000000180025095e-35 1.5000000000000002 2.5000000000000004 1.0000000180025095e-35 3.5000000000000004 2.5000000000000004 2.5000000000000004 2.5000000000000004 1.5000000000000002 1.5000000000000002 3.5000000000000004 2.5000000000000004
decision_type=2 2 2 2 2 2 2 2 2 2 2 2 2 2 2 2 2 2 2 2 2 2 2 2 2 2 2 2 2 2
left_child=1 2 19 6 5 11 12 8 -6 18 -11 -5 13 24 -15 16 17 -7 -10 20 25 22 -22 -24 -4 26 -1 28 -27 -19
right_child=-2 -3 3 4 7 15 -8 -9 9 10 -12 -13 -14 14 -16 -17 -18 29 -20 -21 21 -23 23 -25 -26 27 -28 -29 -30 -31
leaf_value=-0.0016433309477671685 -0.00021703965736157967 0.00063106917672687115 -0.00091547856436056257 -0.001589981215644856 0.0040673249876582536 0.0019362421285721563 0.001484160075291139 0.0028862034735146875 0.007301271198825403 0.0056421849876642227 -0.00299725711612958 0.0045781314373016359 -0.00037897540546445469 0.0004739309661090374 -0.0071530102296122194 2.3483479261032084e-05 -0.00079801080700678696 0.010937393611917895 0.0005617895846565565 -0.00025762758926252573 0.0013226312012353204 0.00034380382981781169 0.0092508642673492427 -0.0009438766882969784 0.0064349535959107532 0.00031594884268102802 -8.5132265614646635e-05 0.0010974002729465322 -0.0041769273757934575 0.0045663174745198846
leaf_weight=794 25212 7200 68 784 143 155 507 1083 44 24 223 41 1554 56 145 651 156 48 120 15749 956 2638 50 26 35 374 2686 1312 125 74
leaf_count=794 25212 7200 68 784 143 155 507 1083 44 24 223 41 1554 56 145 651 156 48 120 15749 956 2638 50 26 35 374 2686 1312 125 74
internal_value=5.05285e-12 0.000144682 3.0316e-05 0.000486199 0.0010034 -2.6317e-06 -0.000289274 0.00217659 0.00078939 -0.000351108 -0.0021578 -0.00128344 -0.000773199 -0.00278841 -0.00502809 0.000972157 0.00239845 0.00419863 0.00236994 -7.8738e-05 0.000235661 0.000711006 0.00164965 0.00576319 0.00158224 -9.40525e-05 -0.000440652 0.00057197 -0.000809521 0.00707297
internal_weight=63033 37821 30621 5911 3546 1909 2365 1637 554 411 247 825 1858 304 201 1084 433 277 164 24710 8961 3670 1032 76 103 5291 3480 1811 499 122
internal_count=63033 37821 30621 5911 3546 1909 2365 1637 554 411 247 825 1858 304 201 1084 433 277 164 24710 8961 3670 1032 76 103 5291 3480 1811 499 122
is_linear=0
shrinkage=0.05


Tree=2
num_leaves=31
num_cat=0
split_feature=26 15 33 9 11 17 33 5 14 30 31 35 40 31 11 32 30 27 19 23 30 6 39 36 12 29 17 36 6 32
split_gain=0.714543 0.458273 0.750742 0.469965 0.961959 0.715888 0.738683 0.997987 0.649251 0.711111 0.576949 0.67301 0.538162 0.678499 0.483963 0.571183 0.479452 0.46163 0.470415 0.45632 0.561437 0.504834 0.45557 0.803 0.636414 1.41618 0.816308 0.909723 1.04376 0.889409
threshold=2.5000000000000004 2.5000000000000004 1.0000000180025095e-35 3.5000000000000004 2.5000000000000004 1.0000000180025095e-35 2.5000000000000004 2.5000000000000004 1.5000000000000002 2.5000000000000004 1.5000000000000002 1.5000000000000002 1.5000000000000002 3.5000000000000004 2.5000000000000004 1.5000000000000002 1.5000000000000002 2.5000000000000004 1.5000000000000002 3.5000000000000004 3.5000000000000004 3.5000000000000004 3.5000000000000004 1.0000000180025095e-35 2.5000000000000004 1.5000000000000002 1.0000000180025095e-35 3.5000000000000004 1.5000000000000002 1.5000000000000002
decision_type=2 2 2 2 2 2 2 2 2 2 2 2 2 2 2 2 2 2 2 2 2 2 2 2 2 2 2 2 2 2
left_child=22 -2 -3 12 10 -6 -7 17 9 -9 -5 -12 13 14 16 19 -4 -8 -19 20 21 -16 23 -1 26 -26 -24 -28 29 -29
right_child=1 2 3 4 5 6 7 8 -10 -11 11 -13 -14 -15 15 -17 -18 18 -20 -21 -22 -23 24 -25 25 -27 27 28 -30 -31
leaf_value=-0.00052990513256132314 -5.4550995486916686e-05 -0.0014511794577874533 -0.0019481158454638687 0.0014859797541733383 -0.0040429309357044307 0.0058980478932481317 0.0010906657642447092 0.001068503253433543 0.0018616982864925143 0.012179614106814068 0.0013741412473295977 -0.0023448157423575011 -2.4905898481370995e-05 0.001152237780224472 -0.0044086467114187056 -0.0010022197342669417 -3.8388673147540885e-06 -0.011336800320052798 -0.0020564975841100225 -0.001515371845914172 -0.00063105907879377674 -0.0098216493924458831 0.0015934409521219811 0.00016485817746671861 -0.0035061481434366772 0.00035622121173617741 -0.0002127867250653978 0.0069330011096283579 0.00076745094029097229 0.0004547749245322721
leaf_weight=4980 16741 1683 519 257 43 132 47 24 218 36 167 448 2899 311 124 413 815 22 36 154 57 66 1811 25225 303 1095 2796 138 1387 86
leaf_count=4980 16741 1683 519 257 43 132 47 24 218 36 167 448 2899 311 124 413 815 22 36 154 57 66 1811 25225 303 1095 2796 138 1387 86
internal_value=-2.98672e-11 -0.000206188 -0.000505864 -0.000271485 0.000533829 0.00215497 0.00267247 0.00156078 0.00312935 0.00773517 -0.000503554 -0.00133495 -0.000486415 -0.0010305 -0.00134653 -0.00230732 -0.00076027 -0.00259221 -0.00557661 -0.00365147 -0.00498329 -0.00628895 0.000137448 5.03102e-05 0.000483034 -0.000480902 0.000699757 0.000332509 0.00127891 0.00444582
internal_weight=63033 25212 8471 6788 1430 558 515 383 278 60 872 615 5358 2459 2148 814 1334 105 58 401 247 190 37821 30205 7616 1398 6218 4407 1611 224
internal_count=63033 25212 8471 6788 1430 558 515 383 278 60 872 615 5358 2459 2148 814 1334 105 58 401 247 190 37821 30205 7616 1398 6218 4407 1611 224
is_linear=0
shrinkage=0.05


Tree=3
num_leaves=31
num_cat=0
split_feature=15 27 11 16 9 32 9 36 32 29 33 30 34 39 35 10 30 14 32 5 33 5 15 25 9 27 32 16 11 14
split_gain=0.614782 0.871454 1.02102 0.812923 0.731695 0.702497 1.18262 0.745449 0.86527 0.734707 0.66296 1.04547 0.595727 0.594371 1.13447 0.726714 0.698447 0.668021 0.730635 1.20283 0.870068 0.692764 0.601531 0.577654 0.576777 0.923692 0.701678 0.669749 0.591005 0.573823
threshold=1.0000000180025095e-35 3.5000000000000004 1.0000000180025095e-35 1.5000000000000002 3.5000000000000004 2.5000000000000004 1.5000000000000002 3.5000000000000004 1.5000000000000002 1.0000000180025095e-35 3.5000000000000004 3.5000000000000004 2.5000000000000004 3.5000000000000004 2.5000000000000004 1.0000000180025095e-35 2.5000000000000004 1.5000000000000002 1.5000000000000002 2.5000000000000004 2.5000000000000004 1.5000000000000002 1.5000000000000002 1.0000000180025095e-35 1.5000000000000002 1.5000000000000002 2.5000000000000004 3.5000000000000004 1.0000000180025095e-35 1.5000000000000002
decision_type=2 2 2 2 2 2 2 2 2 2 2 2 2 2 2 2 2 2 2 2 2 2 2 2 2 2 2 2 2 2
left_child=23 24 3 4 -3 6 7 -4 -9 -7 -5 -12 -11 17 16 -16 -15 18 21 20 -20 -8 -19 -1 25 -2 -27 28 -28 -10
right_child=1 2 5 10 -6 9 13 8 29 12 11 -13 -14 14 15 -17 -18 22 19 -21 -22 -23 -24 -25 -26 26 27 -29 -30 -31
leaf_value=-0.00084666560930823128 0.00047732138168901715 -0.0010014769110591505 0.00012446300683805178 -0.00066086573333575807 -0.0046259547502566604 -0.0021947831257559738 0.0052904565338835578 -0.00036113913526240085 -0.0094946644245049901 0.0027756796245887879 0.0026504190435709734 -0.0027399602143660835 0.0010055623526496842 0.0019714420877592394 -0.0051660953326658774 0.0008850090426100782 0.0059019043129317616 0.0016770757383175112 0.0081154718995094296 0.0084081716835498806 -0.0027069383859634403 -0.00037279372112919586 -0.00036925298593686127 0.0004108939513690988 -0.00034206118418901165 0.00020342057046485171 0.00060765507849758519 -0.0022366136957127324 -0.00076081545692968926 -0.0030696668221285354
leaf_weight=991 7027 487 931 1160 195 141 66 388 39 672 413 115 1624 267 55 507 196 445 26 96 65 297 1861 11627 23628 4167 1009 601 3618 319
leaf_count=991 7027 487 931 1160 195 141 66 388 39 672 413 115 1624 267 55 507 196 445 26 96 65 297 1861 11627 23628 4167 1009 601 3618 319
internal_value=6.53685e-14 -7.812e-05 0.000330509 -0.000580952 -0.0020378 0.000600698 0.000290348 -0.000819179 -0.00199683 0.0013085 7.65604e-06 0.00147638 0.00152365 0.00076978 0.00180265 0.000292819 0.00363531 0.000399091 0.00196488 0.00450393 0.000385179 0.000656888 2.5637e-05 0.000312127 -0.000183874 4.37267e-05 -0.000280581 -0.000666356 -0.000462396 -0.0037696
internal_weight=63033 50415 10365 2370 682 7995 5558 1677 746 2437 1688 528 2296 3881 1025 562 463 2856 550 187 91 363 2306 12618 40050 16422 9395 5228 4627 358
internal_count=63033 50415 10365 2370 682 7995 5558 1677 746 2437 1688 528 2296 3881 1025 562 463 2856 550 187 91 363 2306 12618 40050 16422 9395 5228 4627 358
is_linear=0
shrinkage=0.05


Tree=4
num_leaves=31
num_cat=0
split_feature=26 20 15 19 27 40 14 23 40 25 32 36 40 11 32 27 32 14 27 0 9 9 30 27 34 41 14 33 36 40
split_gain=0.648697 0.764994 0.586714 0.575574 0.829318 0.983496 0.628382 0.620967 0.827159 0.885854 0.52344 0.49887 0.55651 1.28087 0.879421 0.805953 0.60462 0.614959 0.743233 0.577521 0.60845 0.495259 0.625696 0.551791 0.782895 0.669625 0.642645 0.558299 0.548912 0.477329
threshold=2.5000000000000004 3.5000000000000004 1.0000000180025095e-35 1.5000000000000002 3.5000000000000004 2.5000000000000004 1.0000000180025095e-35 3.5000000000000004 1.0000000180025095e-35 2.5000000000000004 1.0000000180025095e-35 3.5000000000000004 2.5000000000000004 2.5000000000000004 3.5000000000000004 2.5000000000000004 1.5000000000000002 2.5000000000000004 1.5000000000000002 2.5000000000000004 1.5000000000000002 2.5000000000000004 1.5000000000000002 1.0000000180025095e-35 1.5000000000000002 2.5000000000000004 3.5000000000000004 1.0000000180025095e-35 2.5000000000000004 1.5000000000000002
decision_type=2 2 2 2 2 2 2 2 2 2 2 2 2 2 2 2 2 2 2 2 2 2 2 2 2 2 2 2 2 2
left_child=1 2 -1 4 6 7 -4 10 9 -9 -6 -3 13 15 -15 29 17 18 -14 20 -20 -8 23 24 26 -26 -23 -25 -24 -13
right_child=-2 11 3 -5 5 -7 21 8 -10 -11 -12 12 16 14 -16 -17 -18 -19 19 -21 -22 22 28 27 25 -27 -28 -29 -30 -31
leaf_value=0.00052142082589431169 -0.0001964580458571906 0.00040616044880037211 0.0002543600427938503 4.5339536115142312e-05 0.0016139862832221154 0.0035350099938814758 -0.00072711984102671314 0.00044547694982314596 -0.00054449013372262316 0.009771901931402819 -0.0023268704813683041 0.0018366832286119462 0.006603602227647748 0.0085110759062151757 -9.7256593215159888e-05 -0.0012361764907836915 -0.00044990258576336036 -0.00093638198869722383 -0.002452346564907777 -0.0040537652216459576 0.0050009247219684177 -0.0058546228616526636 -0.0022297722499783641 -0.0072810986119767902 -0.015089466350693857 -0.0053512525631160268 0.0021158420821515526 -0.0013923823926019372 0.00086437428560782602 0.011279927647632103
leaf_weight=4932 25212 5974 1006 20483 114 244 2137 49 150 53 323 32 113 124 39 159 451 111 38 38 98 66 329 46 31 41 41 322 254 23
leaf_count=4932 25212 5974 1006 20483 114 244 2137 49 150 53 323 32 113 124 39 159 451 111 38 38 98 66 329 46 31 41 41 322 254 23
internal_value=5.40007e-11 0.000130962 2.19209e-05 -7.39775e-05 -0.00054343 0.000807099 -0.000838315 -0.000158954 0.00181772 0.00529156 -0.00129882 0.000594703 0.00151343 0.00311204 0.00645141 0.000568505 0.000803558 0.00222394 0.00344622 0.00139574 0.00291839 -0.00117478 -0.00202137 -0.00323603 -0.00551302 -0.00954409 -0.00280052 -0.00212847 -0.000881722 0.00578568
internal_weight=63033 37821 30621 25689 5206 933 4273 689 252 102 437 7200 1226 377 163 214 849 398 287 174 136 3267 1130 547 179 72 107 368 583 55
internal_count=63033 37821 30621 25689 5206 933 4273 689 252 102 437 7200 1226 377 163 214 849 398 287 174 136 3267 1130 547 179 72 107 368 583 55
is_linear=0
shrinkage=0.05


Tree=5
num_leaves=31
num_cat=0
split_feature=26 20 27 39 10 14 12 39 16 17 20 26 14 34 36 25 5 31 36 16 11 39 23 31 40 10 0 27 32 32
split_gain=0.585449 0.690407 0.473572 0.761423 0.836981 0.955828 0.76085 1.20099 0.874047 0.725876 0.584041 0.4718 0.714978 0.564883 1.4727 0.565112 0.792432 0.55406 0.45023 0.593406 0.684303 0.514249 0.928303 0.78392 0.778122 0.743856 0.720611 0.565137 0.584231 0.563603
threshold=2.5000000000000004 3.5000000000000004 3.5000000000000004 2.5000000000000004 1.0000000180025095e-35 2.5000000000000004 3.5000000000000004 1.0000000180025095e-35 2.5000000000000004 2.5000000000000004 2.5000000000000004 1.0000000180025095e-35 1.5000000000000002 1.5000000000000002 3.5000000000000004 2.5000000000000004 3.5000000000000004 2.5000000000000004 3.5000000000000004 3.5000000000000004 3.5000000000000004 1.5000000000000002 1.0000000180025095e-35 1.0000000180025095e-35 1.0000000180025095e-35 3.5000000000000004 3.5000000000000004 2.5000000000000004 1.0000000180025095e-35 1.0000000180025095e-35
decision_type=2 2 2 2 2 2 2 2 2 2 2 2 2 2 2 2 2 2 2 2 2 2 2 2 2 2 2 2 2 2
left_child=1 2 -1 6 5 -5 -4 9 -9 -8 -10 12 17 14 -14 -15 -17 -6 21 20 -20 22 27 25 -25 -24 29 -3 -29 -26
right_child=-2 18 3 4 11 -7 7 8 10 -11 -12 -13 13 15 -16 16 -18 -19 19 -21 -22 -23 23 24 26 -27 -28 28 -30 -31
leaf_value=-7.5346935157776269e-05 -0.00018663517391986174 0.0036280427225411933 0.00021698960008272131 -0.0043195361513217899 0.009723771321323682 0.0042718771238659707 -0.0039707102205442345 -0.0074296365953794054 -0.0032779339168752942 0.0035613890488942466 0.0055178865194320682 0.00076004698512754671 0.002143419411071797 0.00088509824553518806 0.015543501193706805 0.00067144162021577365 0.012302525396700259 0.00043082386255264285 0.0015351094125549576 -0.00057486587382377466 0.0056356028750025001 -7.0026719936799585e-06 0.0046212022722755351 -0.0053438370232470334 0.0033805348641431799 -0.0026271641931750558 -0.0021720444441170376 -0.0070728762149810795 0.0015368991962043188 0.00034147767302683996
leaf_weight=24710 25212 421 3251 131 53 43 46 119 77 105 25 1201 97 655 26 32 27 23 828 282 116 3479 181 64 174 44 255 25 93 1238
leaf_count=24710 25212 421 3251 131 53 43 46 119 77 105 25 1201 97 655 26 32 27 23 828 282 116 3479 181 64 174 44 255 25 93 1238
internal_value=-1.82336e-12 0.000124414 2.08248e-05 0.000422856 0.00113696 -0.00219637 -2.81132e-05 -0.00217013 -0.00451846 0.00126684 -0.0011221 0.00141132 0.00226802 0.0018464 0.00497596 0.00130727 0.00599414 0.00691143 0.000564968 0.00143776 0.00203898 0.000385852 0.000933645 0.000427366 6.6485e-05 0.00320374 0.0002742 0.0027709 -0.000287206 0.000715979
internal_weight=63033 37821 30621 5911 2288 174 3623 372 221 151 102 2114 913 837 123 714 59 76 7200 1226 944 5974 2495 1956 1731 225 1667 539 118 1412
internal_count=63033 37821 30621 5911 2288 174 3623 372 221 151 102 2114 913 837 123 714 59 76 7200 1226 944 5974 2495 1956 1731 225 1667 539 118 1412
is_linear=0
shrinkage=0.05


Tree=6
num_leaves=31
num_cat=0
split_feature=15 20 9 29 34 14 29 0 32 30 17 35 10 5 14 35 30 12 10 12 35 32 6 25 12 17 17 35 16 20
split_gain=0.535098 0.566391 0.740665 0.560993 0.602154 1.41716 0.659651 0.968098 0.652709 1.09884 0.863421 0.68432 0.68555 0.626483 0.758037 0.621698 0.747311 0.62066 0.851668 0.585176 0.56338 0.87123 0.554977 0.577617 0.596454 0.677245 0.576814 0.5825 0.622497 0.579308
threshold=1.0000000180025095e-35 3.5000000000000004 1.0000000180025095e-35 3.5000000000000004 3.5000000000000004 3.5000000000000004 1.5000000000000002 3.5000000000000004 1.0000000180025095e-35 1.0000000180025095e-35 1.0000000180025095e-35 1.0000000180025095e-35 1.5000000000000002 3.5000000000000004 1.0000000180025095e-35 2.5000000000000004 3.5000000000000004 2.5000000000000004 1.0000000180025095e-35 1.0000000180025095e-35 1.5000000000000002 1.0000000180025095e-35 3.5000000000000004 1.0000000180025095e-35 2.5000000000000004 2.5000000000000004 2.5000000000000004 3.5000000000000004 1.5000000000000002 2.5000000000000004
decision_type=2 2 2 2 2 2 2 2 2 2 2 2 2 2 2 2 2 2 2 2 2 2 2 2 2 2 2 2 2 2
left_child=22 -2 -3 4 6 -6 -4 8 10 13 11 -8 -13 14 -10 16 -9 18 -16 -12 21 -5 23 26 -25 -26 -1 28 -28 -29
right_child=1 2 3 20 5 -7 7 15 9 -11 19 12 -14 -15 17 -17 -18 -19 -20 -21 -22 -23 -24 24 25 -27 27 29 -30 -31
leaf_value=-0.0015482089835053136 -0.0001535684489255496 0.0012583008318802942 0.0012036691642416336 -0.0061322992814081215 0.0014416792980241309 -0.0043185615131997651 0.0020000796529927012 -0.0025310255799974716 -0.0056160696886544091 -0.0008341120457199115 0.0085065580490562651 0.0053188832906576307 -0.0032664860107681974 -0.0016122421221946603 -0.0081326130975503483 -0.0048258713503789644 0.0026421187385436027 0.0068527390102022584 0.0024526078665868586 0.0018970934394747019 0.0034074907908674145 0.0018798871118514263 0.0024306712118355007 0.00017334750476976236 0.0015284285002936128 -0.0010131767564647834 0.0027668358283807286 0.011507536562159658 -0.0038308277620672016 0.00094484959866989555
leaf_weight=772 40928 1594 708 47 1222 117 142 280 29 3337 36 26 220 134 20 179 93 76 381 480 244 122 296 9375 1667 311 81 25 64 27
leaf_count=772 40928 1594 708 47 1222 117 142 280 29 3337 36 26 220 134 20 179 93 76 381 480 244 122 296 9375 1667 311 81 25 64 27
internal_value=-1.4351e-11 -7.28816e-05 0.00027521 7.66743e-05 -2.23751e-05 0.000938357 -0.000231856 -0.000418926 -0.000194473 -0.000470138 0.00101827 -0.000763723 -0.00235909 0.00142765 0.00223267 -0.00240363 -0.00124121 0.00270985 0.00192467 0.00235822 0.0018706 -0.000348354 0.000291197 0.000239803 0.000339815 0.00112881 -0.000931968 0.00148294 -0.000145236 0.00602306
internal_weight=63033 50415 9487 7893 7480 1339 6141 5433 4881 3977 904 388 246 640 506 552 373 477 401 516 413 169 12618 12322 11353 1978 969 197 145 52
internal_count=63033 50415 9487 7893 7480 1339 6141 5433 4881 3977 904 388 246 640 506 552 373 477 401 516 413 169 12618 12322 11353 1978 969 197 145 52
is_linear=0
shrinkage=0.05


Tree=7
num_leaves=31
num_cat=0
split_feature=26 20 0 36 39 40 31 0 6 32 23 33 5 40 0 16 36 40 11 32 15 40 41 11 36 5 36 14 17 6
split_gain=0.530104 0.600948 0.822975 0.681308 0.940577 0.855867 0.881669 0.777011 0.672632 0.743296 0.612384 0.658154 0.603204 0.993178 0.759327 0.612419 0.621551 0.768929 0.565953 0.544938 0.538057 0.550115 0.527187 0.544409 0.500105 0.822054 0.499141 0.968188 0.856018 0.60148
threshold=2.5000000000000004 2.5000000000000004 2.5000000000000004 2.5000000000000004 1.5000000000000002 2.5000000000000004 1.0000000180025095e-35 1.5000000000000002 1.5000000000000002 1.5000000000000002 1.5000000000000002 2.5000000000000004 2.5000000000000004 1.5000000000000002 1.5000000000000002 3.5000000000000004 3.5000000000000004 1.0000000180025095e-35 3.5000000000000004 1.0000000180025095e-35 1.0000000180025095e-35 1.0000000180025095e-35 2.5000000000000004 1.5000000000000002 1.0000000180025095e-35 1.5000000000000002 1.0000000180025095e-35 3.5000000000000004 1.5000000000000002 1.0000000180025095e-35
decision_type=2 2 2 2 2 2 2 2 2 2 2 2 2 2 2 2 2 2 2 2 2 2 2 2 2 2 2 2 2 2
left_child=1 2 8 4 5 -3 -7 24 9 10 11 -1 15 14 -14 16 -5 18 -18 -9 21 -13 23 -17 25 -8 27 28 -4 -29
right_child=-2 3 26 12 -6 6 7 19 -10 -11 -12 20 13 -15 -16 22 17 -19 -20 -21 -22 -23 -24 -25 -26 -27 -28 29 -30 -31
leaf_value=-7.6100956102925259e-05 -0.0001775944079744538 -0.00046299881428196808 -0.0022000785485875828 8.5813692744622787e-05 -0.00033641424634514252 0.004168329618436873 0.0017603677564433644 0.0031208339439341305 -0.00011031097453778575 8.9797101909123387e-05 0.0020556314884563219 0.0094184475910404457 -0.0054705641449314278 0.0019693077877292269 0.00024273675846886802 -0.0043253216926672769 0.003852649871259928 0.0012460910787618592 0.013312193325587682 0.00093730238802505273 0.00071089874747340669 0.0025563303660601378 0.0018937478853961614 -0.00069675476686035262 -7.038066784540813e-06 -0.0069765431036551799 -0.00040370842468629765 0.0063802846562531256 -0.008976856944169484 -0.00025334191233129571
leaf_weight=1090 25212 1157 540 1595 5214 223 42 338 12130 3881 1132 46 73 1741 286 143 64 1054 21 1848 163 80 127 373 312 75 3835 45 51 142
leaf_count=1090 25212 1157 540 1595 5214 223 42 338 12130 3881 1132 46 73 1741 286 143 64 1054 21 1848 163 80 127 373 312 75 3835 45 51 142
internal_value=1.1277e-11 0.000118387 -4.04089e-05 0.000368539 0.000105903 0.000683185 0.00115046 0.000893107 0.000108416 0.000523492 0.00119381 0.000486353 0.000810135 0.00147554 -0.000919021 0.00039635 0.000722889 0.00161502 0.00618971 0.00127492 0.00260772 0.00506155 -0.000992076 -0.00170235 -0.00105245 -0.00384022 -0.000637968 -0.0017927 -0.00278488 0.00134299
internal_weight=63033 37821 23135 14686 9209 3995 2838 2615 18522 6392 2511 1379 5477 2100 359 3377 2734 1139 85 2186 289 126 643 516 429 117 4613 778 591 187
internal_count=63033 37821 23135 14686 9209 3995 2838 2615 18522 6392 2511 1379 5477 2100 359 3377 2734 1139 85 2186 289 126 643 516 429 117 4613 778 591 187
is_linear=0
shrinkage=0.05


Tree=8
num_leaves=31
num_cat=0
split_feature=15 27 40 39 34 33 26 35 14 6 32 16 31 26 14 40 35 14 33 26 27 10 41 15 26 31 15 30 33 35
split_gain=0.480314 0.694668 0.948689 0.795953 0.81118 0.841961 0.763449 0.688025 0.629761 0.567716 0.601678 0.88529 0.557162 0.537597 0.711066 0.536836 0.534912 0.835027 0.621038 0.573649 0.703063 0.590077 0.521977 0.547893 0.517451 0.500737 0.4942 0.58957 0.704698 0.868888
threshold=1.0000000180025095e-35 3.5000000000000004 1.5000000000000002 3.5000000000000004 1.5000000000000002 3.5000000000000004 3.5000000000000004 3.5000000000000004 3.5000000000000004 1.5000000000000002 1.0000000180025095e-35 3.5000000000000004 1.5000000000000002 1.0000000180025095e-35 1.0000000180025095e-35 2.5000000000000004 2.5000000000000004 1.5000000000000002 2.5000000000000004 1.5000000000000002 1.0000000180025095e-35 1.0000000180025095e-35 3.5000000000000004 1.5000000000000002 1.5000000000000002 1.5000000000000002 3.5000000000000004 2.5000000000000004 1.0000000180025095e-35 1.0000000180025095e-35
decision_type=2 2 2 2 2 2 2 2 2 2 2 2 2 2 2 2 2 2 2 2 2 2 2 2 2 2 2 2 2 2
left_child=16 6 3 -3 12 -6 26 -7 9 10 11 15 -5 -9 -15 -8 19 18 24 20 -1 -21 -11 -24 -18 -16 -2 -28 29 -29
right_child=1 2 -4 4 5 7 8 13 -10 22 -12 -13 -14 14 25 -17 17 -19 -20 21 -22 -23 23 -25 -26 -27 27 28 -30 -31
leaf_value=0.0019570533695418653 4.6704792393705785e-05 -0.00054518369369446892 0.00073840696695540902 0.0018781756037188806 -0.00078287551191342066 0.00076158315940417327 -0.0023498278753510838 0.0094098612032038117 0.00080498036733419156 -0.00060983119106917797 -0.0017559712910489656 0.0040730533855301999 0.010998318294966312 0.010784035778361494 -0.0060440267163357937 0.001217320216240856 -0.0037567695592368787 0.0010955681506254742 0.0011898226811584221 0.0014168861649119634 0.00013941181872473933 -0.00040429634367048628 -0.0020498746476675339 0.0022789984800462093 -0.00059117657770090947 0.0030197567443110531 -0.00074117018887548923 0.0016374994584215368 0.00040553812873859324 -0.0034267296028487829
leaf_weight=738 24960 3818 5584 34 473 269 261 47 678 3204 2054 112 33 23 20 177 179 3383 332 487 1906 5130 95 317 463 64 4984 123 2813 272
leaf_count=738 24960 3818 5584 34 473 269 261 47 678 3204 2054 112 33 23 20 177 179 3383 332 487 1906 5130 95 317 463 64 4984 123 2813 272
internal_value=8.85847e-12 -6.90501e-05 0.000295784 -0.00022118 0.00106339 0.000666569 -0.00016347 0.00228734 -0.000642047 -0.000799778 -0.00136268 0.000106077 0.00637019 0.00495247 0.00299455 -0.000908309 0.000275888 0.000724157 -0.000565868 3.94635e-05 0.000646757 -0.000246398 -0.000394412 0.00128084 -0.0014738 0.000861713 -6.38912e-05 -0.000400863 0.000127843 -0.00184977
internal_weight=63033 50415 10365 4781 963 896 40050 423 6898 6220 2604 550 67 154 107 438 12618 4357 974 8261 2644 5617 3616 412 642 84 33152 8192 3208 395
internal_count=63033 50415 10365 4781 963 896 40050 423 6898 6220 2604 550 67 154 107 438 12618 4357 974 8261 2644 5617 3616 412 642 84 33152 8192 3208 395
is_linear=0
shrinkage=0.05


Tree=9
num_leaves=31
num_cat=0
split_feature=26 20 0 36 6 32 23 17 14 12 30 5 16 36 31 5 5 41 26 17 16 27 41 11 16 10 0 11 20 0
split_gain=0.447067 0.532149 0.737044 0.610721 0.595039 0.668693 0.563244 0.561239 0.580303 0.759046 0.574711 0.541976 0.554788 0.561037 0.528113 0.495 0.842598 0.706136 0.535025 0.694178 0.553617 0.493529 0.476062 0.49205 0.455986 0.455882 0.902365 0.885688 0.454443 0.596275
threshold=2.5000000000000004 2.5000000000000004 2.5000000000000004 2.5000000000000004 1.5000000000000002 1.5000000000000002 3.5000000000000004 3.5000000000000004 2.5000000000000004 2.5000000000000004 1.5000000000000002 2.5000000000000004 3.5000000000000004 3.5000000000000004 1.0000000180025095e-35 1.5000000000000002 1.0000000180025095e-35 1.5000000000000002 1.0000000180025095e-35 2.5000000000000004 2.5000000000000004 3.5000000000000004 2.5000000000000004 1.5000000000000002 3.5000000000000004 1.0000000180025095e-35 1.0000000180025095e-35 2.5000000000000004 1.5000000000000002 1.5000000000000002
decision_type=2 2 2 2 2 2 2 2 2 2 2 2 2 2 2 2 2 2 2 2 2 2 2 2 2 2 2 2 2 2
left_child=1 2 4 14 5 6 7 8 -1 -10 -11 12 13 -5 -3 16 -6 -18 -19 24 -21 -22 23 -14 -20 26 -13 -28 29 -9
right_child=-2 3 -4 11 15 -7 -8 28 9 10 -12 25 22 -15 -16 -17 17 18 19 20 21 -23 -24 -25 -26 -27 27 -29 -30 -31
leaf_value=0.00026055371716275091 -0.00016309301871714774 0.0012632782736869709 -0.0006062115295678086 7.5516850223361889e-05 0.00019928047981865508 7.9177361854232794e-05 0.003235893741621242 0.0012436619595341061 0.0036035968247251429 -0.0050570022887908503 0.0025718926590807896 -0.0032977117177767634 -0.004120100026468297 0.0015283740749476352 -2.7307286120027567e-05 0.00013230034966433364 -0.0033515068285304346 -0.0020093432204289874 0.00036049124367815681 -0.0003616436403624866 -0.0047898052477397804 0.00054701920283042784 0.0017908345057269721 -0.00067043420197017715 0.0039577257853967178 0.0011447893125760594 0.0080170185651097983 0.00075619840196200787 -0.0022717321696488755 0.0088665092042807866
leaf_weight=1699 25212 876 4613 1595 2055 3881 281 46 305 52 47 39 143 1139 8333 7802 326 649 478 490 163 59 127 373 108 1886 105 70 23 58
leaf_count=1699 25212 876 4613 1595 2055 3881 281 46 305 52 47 39 143 1139 8333 7802 326 649 478 490 163 59 127 373 108 1886 105 70 23 58
internal_value=1.20913e-11 0.00010872 -4.07097e-05 0.000344118 0.000100132 0.000490532 0.00112632 0.000860497 0.000665569 0.00236884 -0.0014352 0.000762213 0.00036999 0.000680785 9.54588e-05 -0.000105593 -0.000534439 -0.00119779 -0.000837177 -0.000251094 -0.0013001 -0.00337146 -0.000951493 -0.00162645 0.00102346 0.00139294 0.00357995 0.00511269 0.00408832 0.00549487
internal_weight=63033 37821 23135 14686 18522 6392 2511 2230 2103 404 99 5477 3377 2734 9209 12130 4328 2273 1947 1298 712 222 643 516 586 2100 214 175 127 104
internal_count=63033 37821 23135 14686 18522 6392 2511 2230 2103 404 99 5477 3377 2734 9209 12130 4328 2273 1947 1298 712 222 643 516 586 2100 214 175 127 104
is_linear=0
shrinkage=0.05


Tree=10
num_leaves=31
num_cat=0
split_feature=15 27 40 33 20 39 9 30 26 20 36 9 6 35 9 39 39 31 19 17 30 33 34 39 23 30 0 31 35 6
split_gain=0.432054 0.615907 0.846789 0.751863 0.833661 0.717926 0.99878 0.696838 0.667202 0.930065 0.712277 0.570441 1.0196 0.826233 0.687686 0.648204 0.597687 0.565899 0.617041 0.723786 0.626874 0.796497 0.586442 0.968627 0.636277 0.717323 0.558875 0.558094 1.00577 0.693758
threshold=1.0000000180025095e-35 3.5000000000000004 1.5000000000000002 3.5000000000000004 1.5000000000000002 3.5000000000000004 2.5000000000000004 2.5000000000000004 3.5000000000000004 3.5000000000000004 2.5000000000000004 1.5000000000000002 2.5000000000000004 2.5000000000000004 2.5000000000000004 1.0000000180025095e-35 2.5000000000000004 1.0000000180025095e-35 1.5000000000000002 1.0000000180025095e-35 3.5000000000000004 1.0000000180025095e-35 3.5000000000000004 1.5000000000000002 1.5000000000000002 3.5000000000000004 2.5000000000000004 1.5000000000000002 1.5000000000000002 1.5000000000000002
decision_type=2 2 2 2 2 2 2 2 2 2 2 2 2 2 2 2 2 2 2 2 2 2 2 2 2 2 2 2 2 2
left_child=-1 8 3 4 -3 -5 7 -7 9 27 17 12 13 -4 15 -13 -14 18 19 -11 21 -20 24 26 -19 -26 -24 28 -2 -29
right_child=1 2 11 5 -6 6 -8 -9 -10 10 -12 14 16 -15 -16 -17 -18 22 20 -21 -22 -23 23 -25 25 -27 -28 29 -30 -31
leaf_value=0.00026166135287158731 0.00020762139394468531 -0.00013432591179381273 -0.00033395184164351609 3.188757033945456e-05 -0.0019365165634710987 0.00083037292470737383 0.0039341397754481585 -0.0075700581073760986 -0.00060178999556566054 -0.0051294136792421341 0.0013588187172879195 0.004612363303933188 -0.00015511884119823378 0.002856255875152796 0.00063175611879026465 0.0015234316177530393 -0.0025665114363355025 0.00038574604459502685 -0.003096375240699111 0.0018738096271912884 0.0089966927533564368 0.0046488493906830615 0.011181962092566056 0.00040338031805244983 -0.0014751253519848502 0.0011982562435660393 0.0011514845304191113 0.00036249822946625909 -0.0012398471237020506 -0.00025651649542126367
leaf_weight=12618 1995 2065 376 1349 931 98 305 33 6898 52 1723 214 831 441 2527 823 372 2165 47 127 46 113 41 157 1249 314 21 6354 3012 15736
leaf_count=12618 1995 2065 376 1349 931 98 305 33 6898 52 1723 214 831 441 2527 823 372 2165 47 127 46 113 41 157 1249 314 21 6354 3012 15736
internal_value=-3.93754e-12 -6.54893e-05 0.00027804 -0.000210372 -0.000694352 0.000601957 0.00236577 -0.00128577 -0.000154395 -6.1305e-05 0.000498937 0.000696217 2.4949e-05 0.00138806 0.00107668 0.00216088 -0.000900786 0.000156929 0.00198671 -0.000160646 0.00385261 0.00237369 -2.15522e-05 0.00249302 -0.00016927 -0.000938054 0.00778454 -0.000186495 -0.000663115 -7.84622e-05
internal_weight=63033 50415 10365 4781 2996 1785 436 131 40050 33152 6055 5584 2020 817 3564 1037 1203 4332 385 179 206 160 3947 219 3728 1563 62 27097 5007 22090
internal_count=63033 50415 10365 4781 2996 1785 436 131 40050 33152 6055 5584 2020 817 3564 1037 1203 4332 385 179 206 160 3947 219 3728 1563 62 27097 5007 22090
is_linear=0
shrinkage=0.05


end of trees

feature_importances:
feature_tridactyl_immoral_snorting=20
feature_splanchnic_notional_pint=17
feature_unformed_bent_smatch=17
feature_jacobinical_symmetric_roll=16
feature_snakiest_somalian_wavelet=15
feature_toltec_korean_disfavourer=15
feature_unsystematized_subcardinal_malaysia=15
feature_willful_sere_chronobiology=15
feature_elusive_vapoury_accomplice=14
feature_lacklustre_centroidal_schweitzer=14
feature_unbreakable_constraining_hegelianism=14
feature_musicianly_aspirate_creativity=13
feature_transisthmian_yogic_linden=13
feature_trimeter_soggy_greatest=13
feature_jewish_stained_disembowelment=12
feature_limiest_heliolithic_york=12
feature_departmental_inimitable_sentencer=11
feature_geminate_crummiest_scourer=11
feature_antistrophic_striate_conscriptionist=10
feature_crosscut_whilom_ataxy=10
feature_glandered_unimproved_peafowl=10
feature_unanalyzable_excusable_whirlwind=10
feature_reclaimed_insurrectional_moneyer=7
feature_hempen_unionist_cone=6
feature_simulated_nonclassified_intercessor=6
feature_zoological_peristomial_scute=6
feature_stretchy_spiniest_fizgig=5
feature_mendelian_undiscording_avion=3

parameters:
[boosting: gbdt]
[objective: regression]
[metric: l2]
[tree_learner: serial]
[device_type: gpu]
[data_sample_strategy: bagging]
[data: ]
[valid: ]
[num_iterations: 120]
[learning_rate: 0.05]
[num_leaves: 31]
[num_threads: 14]
[seed: 42]
[deterministic: 0]
[force_col_wise: 1]
[force_row_wise: 0]
[histogram_pool_size: -1]
[max_depth: -1]
[min_data_in_leaf: 20]
[min_sum_hessian_in_leaf: 0.001]
[bagging_fraction: 0.8]
[pos_bagging_fraction: 1]
[neg_bagging_fraction: 1]
[bagging_freq: 0]
[bagging_seed: 400]
[bagging_by_query: 0]
[feature_fraction: 0.8]
[feature_fraction_bynode: 1]
[feature_fraction_seed: 30056]
[extra_trees: 0]
[extra_seed: 12879]
[early_stopping_round: 0]
[early_stopping_min_delta: 0]
[first_metric_only: 0]
[max_delta_step: 0]
[lambda_l1: 0]
[lambda_l2: 0]
[linear_lambda: 0]
[min_gain_to_split: 0]
[drop_rate: 0.1]
[max_drop: 50]
[skip_drop: 0.5]
[xgboost_dart_mode: 0]
[uniform_drop: 0]
[drop_seed: 17869]
[top_rate: 0.2]
[other_rate: 0.1]
[min_data_per_group: 100]
[max_cat_threshold: 32]
[cat_l2: 10]
[cat_smooth: 10]
[max_cat_to_onehot: 4]
[top_k: 20]
[monotone_constraints: ]
[monotone_constraints_method: basic]
[monotone_penalty: 0]
[feature_contri: ]
[forcedsplits_filename: ]
[refit_decay_rate: 0.9]
[cegb_tradeoff: 1]
[cegb_penalty_split: 0]
[cegb_penalty_feature_lazy: ]
[cegb_penalty_feature_coupled: ]
[path_smooth: 0]
[interaction_constraints: ]
[verbosity: -1]
[saved_feature_importance_type: 0]
[use_quantized_grad: 0]
[num_grad_quant_bins: 4]
[quant_train_renew_leaf: 0]
[stochastic_rounding: 1]
[linear_tree: 0]
[max_bin: 255]
[max_bin_by_feature: ]
[min_data_in_bin: 3]
[bin_construct_sample_cnt: 200000]
[data_random_seed: 175]
[is_enable_sparse: 1]
[enable_bundle: 1]
[use_missing: 1]
[zero_as_missing: 0]
[feature_pre_filter: 1]
[pre_partition: 0]
[two_round: 0]
[header: 0]
[label_column: ]
[weight_column: ]
[group_column: ]
[ignore_column: ]
[categorical_feature: ]
[forcedbins_filename: ]
[precise_float_parser: 0]
[parser_config_file: ]
[objective_seed: 16083]
[num_class: 1]
[is_unbalance: 0]
[scale_pos_weight: 1]
[sigmoid: 1]
[boost_from_average: 1]
[reg_sqrt: 0]
[alpha: 0.9]
[fair_c: 1]
[poisson_max_delta_step: 0.7]
[tweedie_variance_power: 1.5]
[lambdarank_truncation_level: 30]
[lambdarank_norm: 1]
[label_gain: ]
[lambdarank_position_bias_regularization: 0]
[eval_at: ]
[multi_error_top_k: 1]
[auc_mu_weights: ]
[num_machines: 1]
[local_listen_port: 12400]
[time_out: 120]
[machine_list_filename: ]
[machines: ]
[gpu_platform_id: -1]
[gpu_device_id: -1]
[gpu_use_dp: 0]
[num_gpu: 1]

end of parameters

pandas_categorical:[]
