tree
version=v4
num_class=1
num_tree_per_iteration=1
label_index=0
max_feature_idx=41
objective=regression
feature_names=feature_antistrophic_striate_conscriptionist feature_bicameral_showery_wallaba feature_bridal_fingered_pensioner feature_collectivist_flaxen_gueux feature_concurring_fabled_adapter feature_crosscut_whilom_ataxy feature_departmental_inimitable_sentencer feature_dialectal_homely_cambodia feature_donnard_groutier_twinkle feature_elusive_vapoury_accomplice feature_geminate_crummiest_scourer feature_glandered_unimproved_peafowl feature_hempen_unionist_cone feature_illuminated_gambrel_noria feature_jacobinical_symmetric_roll feature_jewish_stained_disembowelment feature_lacklustre_centroidal_schweitzer feature_limiest_heliolithic_york feature_maledictive_latter_psellism feature_mendelian_undiscording_avion feature_musicianly_aspirate_creativity feature_petty_upraised_caddice feature_pottier_unmanly_collyrium feature_reclaimed_insurrectional_moneyer feature_saddening_unsound_rustling feature_simulated_nonclassified_intercessor feature_snakiest_somalian_wavelet feature_splanchnic_notional_pint feature_strained_equivocal_phoneme feature_stretchy_spiniest_fizgig feature_toltec_korean_disfavourer feature_transisthmian_yogic_linden feature_tridactyl_immoral_snorting feature_trimeter_soggy_greatest feature_unanalyzable_excusable_whirlwind feature_unbreakable_constraining_hegelianism feature_unformed_bent_smatch feature_unministerial_unextenuated_teleostean feature_unmodish_zymogenic_rousing feature_unsystematized_subcardinal_malaysia feature_willful_sere_chronobiology feature_zoological_peristomial_scute
feature_infos=[0:4] none none none none [0:4] [0:4] none none [0:4] [0:4] [0:4] [0:4] none [0:4] [0:4] [0:4] [0:4] none [0:4] [0:4] none none [0:4] none [0:4] [0:4] [0:4] none [0:4] [0:4] [0:4] [0:4] [0:4] [0:4] [0:4] [0:4] none none [0:4] [0:4] [0:4]
tree_sizes=2867 3011 3008 2984 3013 2987 3013 3049 3012 3008 3035 2996 3011 2980 2999 2981 2962 2967 3002 2989 2954 2923 2990 2949 3001 2992 2953 2974 2958 2940 2982 2988 2963 2968 2981 2973 2947 2958 2970 2980 2944 2959 2969 2964 2969 2965 2971 2943 2972 2995 2976 2977 2953 2938 2974 2995 2963 2932 2956 2962 2946 2955 2935 2980 2966 2948 2975 2943 2936

Tree=0
num_leaves=31
num_cat=0
split_feature=15 25 32 27 10 17 20 26 9 11 20 26 25 39 26 9 32 23 9 32 10 36 27 26 36 11 6 25 29 12
split_gain=1.34865 0.802971 0.706891 0.706748 0.828704 0.697347 0.673716 0.698395 0.904861 0.628772 0.598869 0.557573 0.494355 0.67291 0.854014 0.699729 0.740829 0.613431 0.615886 0.583207 0.769537 0.935035 0.534024 0.562988 0.516935 0.700957 0.819959 0.511642 0.588688 0.479358
threshold=1.5000000000000002 1.0000000180025095e-35 1.0000000180025095e-35 2.5000000000000004 2.5000000000000004 3.5000000000000004 1.0000000180025095e-35 2.5000000000000004 3.5000000000000004 1.0000000180025095e-35 3.5000000000000004 2.5000000000000004 1.0000000180025095e-35 3.5000000000000004 1.0000000180025095e-35 1.0000000180025095e-35 1.5000000000000002 1.0000000180025095e-35 3.5000000000000004 3.5000000000000004 1.0000000180025095e-35 1.5000000000000002 1.0000000180025095e-35 1.5000000000000002 1.0000000180025095e-35 2.5000000000000004 3.5000000000000004 2.5000000000000004 3.5000000000000004 1.0000000180025095e-35
decision_type=2 2 2 2 2 2 2 2 2 2 2 2 2 2 2 2 2 2 2 2 2 2 2 2 2 2 2 2 2 2
left_child=1 2 3 10 -5 12 -4 -8 -9 -10 11 -1 17 19 15 -15 -17 18 -2 20 21 -14 -22 24 25 26 -24 28 -23 -16
right_child=5 -3 6 4 -6 -7 7 8 9 -11 -12 -13 13 14 29 16 -18 -19 -20 -21 22 27 23 -25 -26 -27 -28 -29 -30 -31
leaf_value=0.49859697896065597 0.50285592118260114 0.50029111884214361 0.49691715193606573 0.50077478321570668 0.50960659111539985 0.50007612145154046 0.50038184267043451 0.4992266080149334 0.48979366553985809 0.49681121075891138 0.49324604769142771 0.50478559583778204 0.49667271244001693 0.50453228613847534 0.50170516703927148 0.50191441778253387 0.49922134275316227 0.49986629773581803 0.49888659485947501 0.49998186506995174 0.49872396691146864 0.49832095436608548 0.49805202561302886 0.49919258352543278 0.50010672761814046 0.50127140988933139 0.49074604793978038 0.50014376776173675 0.49104174674503254 0.49950299023619277
leaf_weight=95 361 21736 338 58 49 9715 826 583 42 133 30 59 625 138 265 587 452 2693 134 3073 2755 267 262 6110 4059 138 45 541 31 3661
leaf_count=95 361 21736 338 58 49 9715 826 583 42 133 30 59 625 138 265 587 452 2693 134 3073 2755 267 262 6110 4059 138 45 541 31 3661
internal_value=0.499908 0.500199 0.499291 0.501588 0.504819 0.499714 0.498944 0.499376 0.49828 0.495127 0.499709 0.500968 0.49958 0.499499 0.500006 0.501187 0.500743 0.500164 0.501781 0.499355 0.499225 0.498137 0.499344 0.499505 0.499929 0.498312 0.496981 0.499227 0.497564 0.499652
internal_weight=59861 23949 2213 291 107 35912 1922 1584 758 175 184 154 26197 23009 5103 1177 1039 3188 495 17906 14833 1464 13369 10614 4504 445 307 839 298 3926
internal_count=59861 23949 2213 291 107 35912 1922 1584 758 175 184 154 26197 23009 5103 1177 1039 3188 495 17906 14833 1464 13369 10614 4504 445 307 839 298 3926
is_linear=0
shrinkage=1


Tree=1
num_leaves=31
num_cat=0
split_feature=33 40 27 39 5 9 35 31 30 5 34 35 26 30 33 9 35 9 14 5 40 20 27 5 20 10 6 9 9 27
split_gain=0.910052 1.04687 0.744114 0.903291 0.804396 0.799968 0.972123 0.67172 0.64785 0.566599 0.678164 0.952662 0.553697 0.541953 0.541015 0.952832 0.78207 0.619386 0.906174 0.770227 0.869815 0.602845 0.481235 0.477792 1.09881 0.725393 0.984862 1.07658 0.646562 0.582123
threshold=1.0000000180025095e-35 1.5000000000000002 1.5000000000000002 1.5000000000000002 3.5000000000000004 2.5000000000000004 2.5000000000000004 1.5000000000000002 1.0000000180025095e-35 3.5000000000000004 1.5000000000000002 1.0000000180025095e-35 1.5000000000000002 1.5000000000000002 3.5000000000000004 2.5000000000000004 1.5000000000000002 3.5000000000000004 1.0000000180025095e-35 3.5000000000000004 1.0000000180025095e-35 2.5000000000000004 1.0000000180025095e-35 2.5000000000000004 2.5000000000000004 1.0000000180025095e-35 1.5000000000000002 2.5000000000000004 1.5000000000000002 3.5000000000000004
decision_type=2 2 2 2 2 2 2 2 2 2 2 2 2 2 2 2 2 2 2 2 2 2 2 2 2 2 2 2 2 2
left_child=2 14 9 4 8 -6 7 -7 -4 -1 -11 -12 -13 -5 -2 16 -16 -17 -19 20 -20 -18 -3 -24 -25 26 27 28 -26 -28
right_child=1 22 3 13 5 6 -8 -9 -10 10 11 12 -14 -15 15 17 21 18 19 -21 -22 -23 23 24 25 -27 29 -29 -30 -31
leaf_value=0.00013226148656405454 -0.0003450998273224134 -0.0001759719463667182 -0.0031539371802439147 -0.00058777909593801976 -0.00031325787118395923 0.0029913223683834078 0.0015966180346760096 0.013439023327082395 -0.00011971431632413933 -0.00042971367626946759 0.003340997795263926 -0.0087396310394008952 -0.0031073802011087541 -0.0019980487002189771 -0.001631498951653886 0.0017485226504504682 -0.00017751803208594544 0.0034498570299653151 -0.0030929199749380768 0.0010893597164087826 0.0004549455356311512 0.002464054440779071 0.00021475845587584777 7.5696237849997336e-05 -6.3225990388451554e-06 0.001010056185722351 0.0063938086382066359 0.0041486184063710668 -0.0092587555306298391 0.0012940211937977719
leaf_weight=5975 14204 4583 201 1128 159 25 102 40 1410 958 45 60 160 1720 887 1216 1673 189 359 576 333 248 15081 3976 41 4125 198 76 35 78
leaf_count=5975 14204 4583 201 1128 159 25 102 40 1410 958 45 60 160 1720 887 1216 1673 189 359 576 333 248 15081 3976 41 4125 198 76 35 78
internal_value=5.5843e-11 9.75318e-05 -0.000389687 -0.000872938 -3.99316e-05 0.00222513 0.00464191 0.00942068 -0.000498286 -6.84381e-05 -0.00104896 -0.0032876 -0.00464345 -0.00143949 -0.000182271 0.0002397 -0.000403505 0.00091539 0.000220064 -0.000261349 -0.00138564 0.000163507 0.000292896 0.00038391 0.000683004 0.00121335 0.00317263 -5.93465e-05 -0.00426731 0.00495256
internal_weight=59861 47878 11983 4785 1937 326 167 65 1611 7198 1223 265 220 2848 19685 5481 2808 2673 1457 1268 692 1921 28193 23610 8529 4553 428 152 76 276
internal_count=59861 47878 11983 4785 1937 326 167 65 1611 7198 1223 265 220 2848 19685 5481 2808 2673 1457 1268 692 1921 28193 23610 8529 4553 428 152 76 276
is_linear=0
shrinkage=0.05


Tree=2
num_leaves=31
num_cat=0
split_feature=15 14 33 27 25 12 26 31 25 32 26 29 36 19 9 40 25 35 23 29 5 35 5 36 31 19 33 11 11 39
split_gain=1.23601 1.31686 0.970337 0.937959 0.901182 1.17883 0.830062 0.790286 0.657493 1.03181 0.687096 0.629512 0.770259 1.06936 0.944343 0.682555 0.670771 0.628758 0.740171 0.621244 0.617523 0.56492 0.560417 1.02144 0.547427 0.550606 0.573686 0.541992 0.860555 0.535053
threshold=1.5000000000000002 1.5000000000000002 1.0000000180025095e-35 1.5000000000000002 1.0000000180025095e-35 2.5000000000000004 3.5000000000000004 2.5000000000000004 1.0000000180025095e-35 1.0000000180025095e-35 2.5000000000000004 3.5000000000000004 1.0000000180025095e-35 3.5000000000000004 3.5000000000000004 2.5000000000000004 3.5000000000000004 3.5000000000000004 1.5000000000000002 1.0000000180025095e-35 1.5000000000000002 1.0000000180025095e-35 3.5000000000000004 2.5000000000000004 2.5000000000000004 3.5000000000000004 1.0000000180025095e-35 2.5000000000000004 3.5000000000000004 1.5000000000000002
decision_type=2 2 2 2 2 2 2 2 2 2 2 2 2 2 2 2 2 2 2 2 2 2 2 2 2 2 2 2 2 2
left_child=1 6 3 4 5 -2 11 -7 9 -3 17 12 13 16 -15 -14 -1 18 19 -11 -19 -6 -23 -24 -17 26 -26 -9 -29 -5
right_child=2 8 -4 29 21 7 -8 27 -10 10 -12 -13 15 14 -16 24 -18 20 -20 -21 -22 22 23 -25 25 -27 -28 28 -30 -31
leaf_value=-0.0012490909445419963 0.0042807606273684009 0.0034257468447756417 -7.0839766947140714e-05 -0.0006602491632170742 0.0003198572906235975 0.0054065895386231251 -0.0015853621234238298 -0.00038353044763478697 0.00054764640662911812 0.0080362464940013281 -0.0025889471417567772 0.0017088614029314869 -0.00048427469130170531 -0.0051184117095544939 0.0031425543129444122 0.0024418743969551451 0.0024739076311771687 -0.0010843148900728141 -0.0031955538682334576 0.0001308122426044929 0.0076113796940225423 -0.00063380043194219199 -0.0016628164221945498 -0.0085268385826595249 -0.0058463983383833197 0.0028382120033105217 -0.00013886638772413597 -0.01420046129232188 -0.0015092690612244256 -0.0022564601748714624
leaf_weight=539 232 134 30058 892 1147 39 1193 103 17649 28 488 437 1576 256 40 464 156 35 179 221 49 1658 388 63 51 132 322 22 34 1276
leaf_count=539 232 134 30058 892 1147 39 1193 103 17649 28 488 437 1576 256 40 464 156 35 179 221 49 1658 388 63 51 132 322 22 34 1276
internal_value=6.40785e-12 0.000278218 -0.000185538 -0.00077447 -0.000289084 0.00186224 -0.000428752 -0.000971575 0.00047266 -0.000694382 -0.00124648 -8.14482e-05 -0.000302705 -0.00148531 -0.00400206 0.00015779 -0.000413425 3.30603e-05 -0.000743177 0.00101978 0.00398817 -0.000573197 -0.00105889 -0.00262165 0.00120206 6.28964e-05 -0.000919253 -0.00253603 -0.00649509 -0.00159972
internal_weight=59861 23949 35912 5854 3686 430 5166 198 18783 1134 1000 3973 3536 991 296 2545 695 512 428 249 84 3256 2109 451 969 505 373 159 56 2168
internal_count=59861 23949 35912 5854 3686 430 5166 198 18783 1134 1000 3973 3536 991 296 2545 695 512 428 249 84 3256 2109 451 969 505 373 159 56 2168
is_linear=0
shrinkage=0.05


Tree=3
num_leaves=31
num_cat=0
split_feature=15 14 33 32 34 10 35 32 25 32 31 29 9 30 34 10 16 5 39 35 29 5 0 39 30 35 9 30 5 14
split_gain=1.1155 1.18846 0.875729 0.856434 1.04352 0.620951 0.608187 0.64592 0.593388 0.931205 0.589646 0.59398 0.547296 0.621244 0.607307 0.594963 0.587019 0.58054 0.640792 0.528142 0.526789 0.622876 0.575313 0.496091 0.677401 0.658891 0.629526 0.58155 0.574086 0.545109
threshold=1.5000000000000002 1.5000000000000002 1.0000000180025095e-35 3.5000000000000004 1.5000000000000002 1.0000000180025095e-35 3.5000000000000004 1.5000000000000002 1.0000000180025095e-35 1.0000000180025095e-35 1.5000000000000002 1.5000000000000002 3.5000000000000004 1.0000000180025095e-35 2.5000000000000004 3.5000000000000004 2.5000000000000004 1.0000000180025095e-35 1.5000000000000002 2.5000000000000004 3.5000000000000004 3.5000000000000004 1.0000000180025095e-35 2.5000000000000004 1.5000000000000002 1.0000000180025095e-35 2.5000000000000004 3.5000000000000004 1.5000000000000002 3.5000000000000004
decision_type=2 2 2 2 2 2 2 2 2 2 2 2 2 2 2 2 2 2 2 2 2 2 2 2 2 2 2 2 2 2
left_child=1 20 3 4 5 10 7 12 9 19 11 -2 14 -14 15 -6 -15 -16 -19 -3 22 -22 -1 27 25 26 -25 -5 -29 -26
right_child=2 8 -4 23 6 -7 -8 -9 -10 -11 -12 -13 13 16 17 -17 -18 18 -20 -21 21 -23 -24 24 29 -27 -28 28 -30 -31
leaf_value=-0.0015140718502720373 -0.011848213804035407 0.00059471000463534628 -6.7297740010842727e-05 0.0004152846223081065 -0.00073646948317796488 -0.00030747377797988619 -0.004351734334772284 -0.0031083446272596005 0.00052026406625383162 -0.0011841554343700409 -0.00048484032352765399 -0.0033256867590471697 -0.0065901756706372126 0.0052088457730508622 -0.0017424828359398289 -0.0094443516297773884 -0.0037327644560072159 0.0085039129193244991 0.0016198351390770884 0.0069590951715196893 0.0017980883430928675 -0.0026067153080222534 -0.00024793452582978092 0.00085112467084241946 -0.002968813648738829 -0.00084694598198813565 0.0095476479906784865 0.00092323805156506998 0.0065620365530945539 0.0038084596169717386
leaf_weight=1221 23 78 30058 684 181 2721 275 458 17649 1000 204 184 71 31 69 22 45 49 109 56 465 97 3383 46 294 136 38 95 86 33
leaf_count=1221 23 78 30058 684 181 2721 275 458 17649 1000 204 184 71 31 69 22 45 49 109 56 465 97 3383 46 294 136 38 95 86 33
internal_value=5.32277e-12 0.000264307 -0.000176261 -0.000735747 -0.00107672 -0.000581092 -0.00226168 -0.00170636 0.000449027 -0.000659664 -0.00239256 -0.00427263 -0.000593513 -0.00322723 0.000306851 -0.00168018 -8.55287e-05 0.0020838 0.00375477 0.00325445 -0.000407314 0.00103783 -0.000583719 0.000336914 -0.000841635 0.00130354 0.00478527 0.00108219 0.00360245 -0.00228487
internal_weight=59861 23949 35912 5854 4442 3132 1310 1035 18783 1134 411 207 577 147 430 203 76 227 158 134 5166 562 4604 1412 547 220 84 865 181 327
internal_count=59861 23949 35912 5854 4442 3132 1310 1035 18783 1134 411 207 577 147 430 203 76 227 158 134 5166 562 4604 1412 547 220 84 865 181 327
is_linear=0
shrinkage=0.05


Tree=4
num_leaves=31
num_cat=0
split_feature=15 14 33 27 25 26 20 25 32 30 34 17 25 32 20 26 34 35 14 11 31 29 20 29 36 19 9 40 25 34
split_gain=1.00674 1.07259 0.790346 0.820022 0.805506 0.746181 1.22318 0.912454 0.690108 0.58837 0.802859 0.666323 0.535533 0.840412 0.78087 0.892076 0.905537 0.672497 0.62143 0.594026 0.534119 1.02792 0.557876 0.520198 0.695904 0.966439 0.8527 0.61533 0.604721 0.514944
threshold=1.5000000000000002 1.5000000000000002 1.0000000180025095e-35 1.5000000000000002 1.0000000180025095e-35 3.5000000000000004 2.5000000000000004 2.5000000000000004 1.0000000180025095e-35 3.5000000000000004 2.5000000000000004 2.5000000000000004 1.0000000180025095e-35 1.0000000180025095e-35 1.5000000000000002 2.5000000000000004 1.0000000180025095e-35 2.5000000000000004 3.5000000000000004 2.5000000000000004 1.5000000000000002 1.5000000000000002 3.5000000000000004 3.5000000000000004 1.0000000180025095e-35 3.5000000000000004 3.5000000000000004 2.5000000000000004 3.5000000000000004 2.5000000000000004
decision_type=2 2 2 2 2 2 2 2 2 2 2 2 2 2 2 2 2 2 2 2 2 2 2 2 2 2 2 2 2 2
left_child=1 5 3 4 8 23 -7 -8 -2 11 -11 20 13 -3 18 16 -16 -18 -15 -17 -6 -22 -23 24 25 28 -27 29 -1 -26
right_child=2 12 -4 -5 9 6 7 -9 -10 10 -12 -13 -14 14 15 19 17 -19 -20 -21 21 22 -24 -25 27 26 -28 -29 -30 -31
leaf_value=-0.0011573245884425984 0.0073108713030815122 0.0030917289541728464 -6.3932778806900247e-05 -0.0014705813458924806 -0.0014259328429837782 4.7836717020833862e-05 -0.0054863439118566599 -0.001439016912041641 0.0010622231270137586 -0.0024869997387840636 0.0051333930041338946 -0.0027503929810321079 0.00049425071748405742 -0.0047639617616194859 0.0071836602183118952 -0.0032471682706314503 -0.001526274182546286 0.0036881747990846637 -0.00037161302930526153 0.0014212759701829208 0.0064021292918883064 0.00065822712690249063 -0.0013822185821916865 0.0015698006492775114 0.00037099683737538573 -0.0048362463363446299 0.0030136499553918839 0.0011704215570377001 0.0023776240455798616 -0.001449600811135185
leaf_weight=539 50 134 30058 2168 498 623 242 328 380 525 37 235 17649 209 62 241 162 100 131 95 69 1457 435 437 882 256 40 969 156 694
leaf_count=539 50 134 30058 2168 498 623 242 328 380 525 37 235 17649 209 62 241 162 100 131 95 69 1457 435 437 882 256 40 969 156 694
internal_value=-9.07962e-12 0.000251092 -0.000167448 -0.00069896 -0.000245114 -0.000386948 -0.00148356 -0.00315736 0.00178881 -0.000513722 -0.0019853 -0.000206733 0.000426576 -0.000626681 -0.00112495 -0.000122119 0.00174984 0.000463974 -0.00307162 -0.00192722 3.6358e-05 0.00040771 0.000189097 -5.76602e-05 -0.000258792 -0.00138287 -0.00377545 0.000178913 -0.000363868 -0.000430713
internal_weight=59861 23949 35912 5854 3686 5166 1193 570 430 3256 562 2694 18783 1134 1000 660 324 262 340 336 2459 1961 1892 3973 3536 991 296 2545 695 1576
internal_count=59861 23949 35912 5854 3686 5166 1193 570 430 3256 562 2694 18783 1134 1000 660 324 262 340 336 2459 1961 1892 3973 3536 991 296 2545 695 1576
is_linear=0
shrinkage=0.05


Tree=5
num_leaves=31
num_cat=0
split_feature=40 34 27 11 32 11 30 10 25 30 11 26 32 39 5 25 36 39 34 23 32 36 30 10 35 26 31 40 16 12
split_gain=0.765879 0.649838 0.633977 0.593824 0.641527 1.01811 0.877925 0.609929 0.977737 0.69451 0.578964 1.02077 0.686652 0.739185 0.593981 0.56372 0.948058 1.14967 0.779691 0.600077 1.07168 0.757002 1.24453 0.960537 0.748542 0.737619 0.83781 0.657324 0.698578 0.548284
threshold=1.5000000000000002 1.0000000180025095e-35 3.5000000000000004 3.5000000000000004 1.0000000180025095e-35 1.5000000000000002 1.5000000000000002 1.5000000000000002 1.5000000000000002 1.5000000000000002 3.5000000000000004 1.5000000000000002 2.5000000000000004 1.5000000000000002 3.5000000000000004 1.5000000000000002 2.5000000000000004 1.0000000180025095e-35 1.5000000000000002 3.5000000000000004 1.0000000180025095e-35 2.5000000000000004 1.5000000000000002 1.5000000000000002 1.5000000000000002 1.0000000180025095e-35 2.5000000000000004 1.0000000180025095e-35 2.5000000000000004 1.5000000000000002
decision_type=2 2 2 2 2 2 2 2 2 2 2 2 2 2 2 2 2 2 2 2 2 2 2 2 2 2 2 2 2 2
left_child=1 -1 -2 4 5 -4 -7 8 -5 -10 11 -3 15 -14 -15 16 17 -12 -19 20 21 -17 24 -24 -23 26 -21 -27 -29 -9
right_child=2 10 3 7 -6 6 -8 29 9 -11 12 -13 13 14 -16 19 -18 18 -20 25 -22 22 23 -25 -26 27 -28 28 -30 -31
leaf_value=0.00035472854396701218 4.5511405255277969e-05 1.0600796970000038e-05 0.00084213607555983091 6.0091938586593366e-05 0.0005769905437033292 -0.00020940326727353611 0.005929106292517289 0.0030315527479920614 0.00038675765196482343 -0.0081188179552555088 -0.0033717068063246237 -0.00080964180469001313 0.0002817881891601964 -0.0017771301355706641 -0.0074950758148642146 -0.00062238890574781939 0.00030558706282045897 0.001879123929474089 0.0088321035262197266 -0.0020813358139316991 0.00061611988634433391 -0.016628228541877534 0.0082305251806974421 -0.0034835489094257356 -0.0054770240231471904 0.00059534860429940402 0.0077752223859230687 0.0010904660475426827 0.0057910665305885116 -0.00022546210826852216
leaf_weight=4092 29221 6396 604 173 4364 78 230 149 33 88 37 9320 570 415 51 362 313 63 112 212 1113 27 20 140 34 324 24 138 185 973
leaf_count=4092 29221 6396 604 173 4364 78 230 149 33 88 37 9320 570 415 51 362 313 63 112 212 1113 27 20 140 34 324 24 138 185 973
internal_value=8.91289e-13 -0.000219013 0.000146045 0.000585031 0.000829037 0.0020351 0.00437455 -0.000324132 -0.00235135 -0.00579912 -0.000337251 -0.000475825 0.000188791 -0.000925809 -0.00240291 0.000560803 0.00205424 0.00463598 0.00632903 0.000256788 -0.000293532 -0.00203014 -0.00433605 -0.00201929 -0.0104128 0.0013138 -0.00107897 0.00218659 0.00378276 0.000207065
internal_weight=59861 23948 35913 6692 5276 912 308 1416 294 121 19856 15716 4140 1036 466 3104 525 212 175 2579 1696 583 221 160 61 883 236 647 323 1122
internal_count=59861 23948 35913 6692 5276 912 308 1416 294 121 19856 15716 4140 1036 466 3104 525 212 175 2579 1696 583 221 160 61 883 236 647 323 1122
is_linear=0
shrinkage=0.05


Tree=6
num_leaves=31
num_cat=0
split_feature=15 14 17 14 9 41 20 12 31 39 29 29 0 34 12 17 35 25 32 20 16 11 34 12 17 29 35 0 20 35
split_gain=0.907605 0.971804 0.583068 0.731131 0.511692 0.637124 0.655612 0.559623 0.655423 0.527984 0.637153 0.666367 0.587135 0.859621 0.719964 0.609423 0.575871 0.488555 0.752554 0.699687 0.635034 0.612506 0.553722 0.484376 0.497659 0.571708 0.473616 0.461831 0.656539 0.798569
threshold=1.5000000000000002 1.5000000000000002 3.5000000000000004 1.5000000000000002 3.5000000000000004 2.5000000000000004 2.5000000000000004 3.5000000000000004 2.5000000000000004 2.5000000000000004 1.5000000000000002 1.0000000180025095e-35 1.0000000180025095e-35 1.5000000000000002 1.5000000000000002 1.0000000180025095e-35 3.5000000000000004 1.0000000180025095e-35 1.0000000180025095e-35 1.5000000000000002 1.5000000000000002 2.5000000000000004 1.0000000180025095e-35 3.5000000000000004 1.5000000000000002 1.5000000000000002 2.5000000000000004 1.0000000180025095e-35 1.0000000180025095e-35 3.5000000000000004
decision_type=2 2 2 2 2 2 2 2 2 2 2 2 2 2 2 2 2 2 2 2 2 2 2 2 2 2 2 2 2 2
left_child=1 27 3 4 5 6 7 8 -2 10 11 -6 13 -11 -15 -14 -17 18 26 20 22 -21 -20 -19 25 -25 -3 28 -1 -30
right_child=2 17 -4 -5 9 -7 -8 -9 -10 12 -12 -13 15 14 -16 16 -18 23 19 21 -22 -23 -24 24 -26 -27 -28 -29 29 -31
leaf_value=0.0014134037963651949 -0.0007392852136378315 0.0003994218049905239 0.00017184694771661137 -0.0004226591244564312 0.00036164846810606834 -0.00055103112023753163 0.0018423727439152255 -0.0021883952131076735 0.0017511178077783606 -0.005348883842428525 -0.0009272297903420699 0.0082864462825455124 0.0047778739255640006 -0.0041604737508232183 0.0068446129360901463 2.8212196801019756e-05 0.0046386450141047446 0.00039923939553545765 0.0064478182233870035 -0.0011961740160745288 -0.0048693388859855948 0.0020386870525198986 -0.0018232438049113103 0.0052417310410526304 0.00030222581925793231 0.0016091113667524286 0.0064263255468436659 -8.024955695530155e-05 -0.00098734609629391647 -0.0043357545082722236
leaf_weight=213 547 78 9715 20389 72 2568 723 245 511 60 426 42 223 23 42 230 96 16446 24 441 187 219 129 136 535 532 56 3763 972 218
leaf_count=213 547 78 9715 20389 72 2568 723 245 511 60 426 42 223 23 42 230 96 16446 24 441 187 219 129 136 535 532 56 3763 972 218
internal_value=6.77844e-12 0.000238409 -0.00015899 -0.000281679 0.000213231 -2.80229e-05 0.000634902 -3.50918e-05 0.000463546 0.00112618 -3.87601e-05 0.00328131 0.00205952 -0.0010332 0.00295051 0.00276369 0.00138589 0.000405445 -0.000600554 -0.00107206 -0.00291476 -0.000122788 -0.000525822 0.000470084 0.00143858 0.00234869 0.00291813 -0.000368916 -0.00114315 -0.00160075
internal_weight=59861 23949 35912 26197 5808 4594 2026 1303 1058 1214 540 114 674 125 65 549 326 18783 1134 1000 340 660 153 17649 1203 668 134 5166 1403 1190
internal_count=59861 23949 35912 26197 5808 4594 2026 1303 1058 1214 540 114 674 125 65 549 326 18783 1134 1000 340 660 153 17649 1203 668 134 5166 1403 1190
is_linear=0
shrinkage=0.05


Tree=7
num_leaves=31
num_cat=0
split_feature=15 14 33 32 26 20 27 17 20 31 32 6 20 14 35 40 40 36 14 32 27 40 35 0 16 0 5 26 30 26
split_gain=0.819114 0.877053 0.703402 0.769217 0.673 1.09565 0.575931 0.538907 0.504867 0.612002 0.577893 0.53536 0.497203 0.452345 0.72637 0.632067 0.56533 0.523654 0.452143 0.554727 0.544846 0.597124 0.694299 0.753447 0.852364 0.689962 0.683395 0.756239 0.598763 0.593762
threshold=1.5000000000000002 1.5000000000000002 1.0000000180025095e-35 3.5000000000000004 3.5000000000000004 2.5000000000000004 1.5000000000000002 2.5000000000000004 2.5000000000000004 2.5000000000000004 1.0000000180025095e-35 3.5000000000000004 3.5000000000000004 1.0000000180025095e-35 1.5000000000000002 1.0000000180025095e-35 1.5000000000000002 3.5000000000000004 1.0000000180025095e-35 3.5000000000000004 1.0000000180025095e-35 1.5000000000000002 3.5000000000000004 1.5000000000000002 1.0000000180025095e-35 1.0000000180025095e-35 3.5000000000000004 1.5000000000000002 1.0000000180025095e-35 1.5000000000000002
decision_type=2 2 2 2 2 2 2 2 2 2 2 2 2 2 2 2 2 2 2 2 2 2 2 2 2 2 2 2 2 2
left_child=1 4 3 6 8 -6 7 12 11 -10 -11 13 -2 14 -1 17 -16 -15 19 -4 -20 22 -22 25 -25 26 -24 -28 -27 -26
right_child=2 -3 18 -5 5 -7 -8 -9 9 10 -12 -13 -14 15 16 -17 -18 -19 20 -21 21 -23 23 24 29 28 27 -29 -30 -31
leaf_value=0.0016375159304862575 6.7583320342846006e-05 0.00038517288288889636 0.00076562340878102465 0.00036411118659351773 5.7443914214451089e-05 -0.0029760546851576421 -0.0016884424214418225 -0.0031258368169939199 0.0015063279424922941 -0.0074657061270305101 -0.00014756241949593149 0.0029027688804022767 -0.001566815366589926 0.0015575936369475773 -0.002208738032998093 -0.0019635432391780718 0.0011842203107687945 -0.0051532985134558245 -0.00063448834577904429 -0.00094500633984856723 -0.00063138228395710825 0.00019485101590000967 -0.0012763055067666819 -0.0012847275205603687 0.0021287528127255941 0.00090543352505739999 0.011921156818668049 0.0013678929415242426 -0.0039263321465002627 0.00037503000780435384
leaf_weight=434 1912 18783 2887 1412 623 570 1730 185 903 28 738 109 615 244 373 928 183 33 4358 567 6233 13025 142 449 847 85 24 58 261 1122
leaf_count=434 1912 18783 2887 1412 623 570 1730 185 903 28 738 109 615 244 373 928 183 33 4358 567 6233 13025 142 449 847 85 24 58 261 1122
internal_value=1.46377e-11 0.000226489 -0.000151041 -0.000652465 -0.00035047 -0.00139192 -0.000975609 -0.000520889 -3.77458e-05 0.00062449 -0.000415066 -0.000517464 -0.000330183 -0.000687307 0.000104581 -0.0013379 -0.00109199 0.000758101 -5.33848e-05 0.000484811 -0.000123259 -2.31088e-05 -0.000330985 0.000295647 0.000681139 -0.00133965 0.000822367 0.00445665 -0.00273934 0.00112942
internal_weight=59861 23949 35912 5854 5166 1193 4442 2712 3973 1669 766 2304 2527 2195 990 1205 556 277 30058 3454 26604 22246 9221 2988 2418 570 224 82 346 1969
internal_count=59861 23949 35912 5854 5166 1193 4442 2712 3973 1669 766 2304 2527 2195 990 1205 556 277 30058 3454 26604 22246 9221 2988 2418 570 224 82 346 1969
is_linear=0
shrinkage=0.05


Tree=8
num_leaves=31
num_cat=0
split_feature=15 14 33 32 34 26 10 35 32 31 29 40 31 30 39 16 39 27 26 39 16 40 29 36 25 26 23 12 40 34
split_gain=0.73925 0.791541 0.63482 0.694218 0.889488 0.607382 0.565604 0.533933 0.571469 0.509538 0.542999 0.477232 1.22836 0.720292 0.541219 0.532553 0.553084 0.521623 0.530339 0.684435 0.8385 0.545532 0.469937 0.627899 0.532652 0.677429 0.736763 0.545795 0.527562 0.486302
threshold=1.5000000000000002 1.5000000000000002 1.0000000180025095e-35 3.5000000000000004 1.5000000000000002 3.5000000000000004 1.0000000180025095e-35 3.5000000000000004 1.5000000000000002 1.5000000000000002 1.5000000000000002 3.5000000000000004 1.5000000000000002 3.5000000000000004 3.5000000000000004 1.0000000180025095e-35 1.5000000000000002 1.5000000000000002 3.5000000000000004 3.5000000000000004 1.0000000180025095e-35 1.5000000000000002 3.5000000000000004 1.0000000180025095e-35 3.5000000000000004 1.0000000180025095e-35 1.0000000180025095e-35 1.5000000000000002 2.5000000000000004 1.5000000000000002
decision_type=2 2 2 2 2 2 2 2 2 2 2 2 2 2 2 2 2 2 2 2 2 2 2 2 2 2 2 2 2 2
left_child=1 5 3 4 6 22 9 8 -6 10 -2 17 14 15 -13 -14 -17 18 19 -8 -21 -20 23 24 27 -26 -27 -1 -25 -30
right_child=2 -3 -4 -5 7 -7 11 -9 -10 -11 -12 12 13 -15 -16 16 -18 -19 21 20 -22 -23 -24 28 25 26 -28 -29 29 -31
leaf_value=-0.0032748002790467766 -0.011188975985714934 0.00036591424707444099 -5.0715573954482281e-05 0.00034590557681940098 -0.00045378161674975527 -0.0013223263563873983 -0.00067407965328035923 -0.0039791611758145419 -0.0028192432296328153 -0.00042469299526191228 -0.0030403989563440163 0.0043619510228351012 0.00289067883813192 -0.0056030165317446689 -0.0024321689055516169 -0.0053041298356321133 -0.001021321440893638 -0.0010429653901695799 0.00042221831318772871 -0.0016581812910005161 0.0038185013575596852 0.0044947302983906461 0.0015109825055368586 -0.00037573585759489064 0.0073081125231350174 0.0015728162285261627 -0.0051366509587847092 -0.00058599162627668948 -0.00053801073022308101 0.00186960277825684
leaf_weight=381 23 18783 30058 1412 577 1193 718 275 458 204 184 118 63 129 39 99 316 586 162 102 222 167 437 1576 34 145 57 374 307 662
leaf_count=381 23 18783 30058 1412 577 1193 718 275 458 204 184 118 63 129 39 99 316 586 162 102 222 167 437 1576 34 145 57 374 307 662
internal_value=1.20834e-11 0.000215164 -0.000143489 -0.000619842 -0.000926829 -0.000332947 -0.00046924 -0.00202085 -0.00150053 -0.0021981 -0.0039458 -0.000208101 -0.00126789 -0.00228752 0.00267424 -0.00139275 -0.002043 0.000205634 0.000739317 0.000186741 0.00209436 0.00248942 -3.58589e-05 -0.000227027 -0.00129477 0.000778581 -0.000320449 -0.00194286 0.000188742 0.00110682
internal_weight=59861 23949 35912 5854 4442 5166 3132 1310 1035 411 207 2721 764 607 157 478 415 1957 1371 1042 324 329 3973 3536 991 236 202 755 2545 969
internal_count=59861 23949 35912 5854 4442 5166 3132 1310 1035 411 207 2721 764 607 157 478 415 1957 1371 1042 324 329 3973 3536 991 236 202 755 2545 969
is_linear=0
shrinkage=0.05


Tree=9
num_leaves=31
num_cat=0
split_feature=15 14 33 32 26 20 12 17 10 27 17 16 20 31 32 6 12 29 26 41 0 30 36 6 11 35 10 5 6 41
split_gain=0.667173 0.714365 0.572926 0.626533 0.548163 0.98882 0.852682 0.587467 0.996229 0.462671 0.473156 0.449262 0.436761 0.551186 0.515809 0.480799 0.549253 0.462032 0.434386 0.965105 1.00641 0.96567 0.655012 0.647547 0.747189 1.08139 0.751729 0.580476 0.449987 0.435886
threshold=1.5000000000000002 1.5000000000000002 1.0000000180025095e-35 3.5000000000000004 3.5000000000000004 2.5000000000000004 1.5000000000000002 1.5000000000000002 3.5000000000000004 1.5000000000000002 2.5000000000000004 2.5000000000000004 2.5000000000000004 2.5000000000000004 1.0000000180025095e-35 3.5000000000000004 1.0000000180025095e-35 1.5000000000000002 1.5000000000000002 1.0000000180025095e-35 3.5000000000000004 3.5000000000000004 3.5000000000000004 2.5000000000000004 3.5000000000000004 2.5000000000000004 1.5000000000000002 1.0000000180025095e-35 1.5000000000000002 1.5000000000000002
decision_type=2 2 2 2 2 2 2 2 2 2 2 2 2 2 2 2 2 2 2 2 2 2 2 2 2 2 2 2 2 2
left_child=1 4 3 9 12 -6 -7 11 -9 10 -2 -8 15 17 -15 -1 -17 -14 19 22 -21 23 -4 24 25 26 28 29 -22 -25
right_child=2 -3 18 -5 5 6 7 8 -10 -11 -12 -13 13 14 -16 16 -18 -19 -20 20 21 -23 -24 27 -26 -27 -28 -29 -30 -31
leaf_value=-0.00064121112736365352 -0.00029423047560309535 0.00034761845046882528 0.0008360307026509849 0.00032861035623226223 0.00012068813532160335 -0.00076520570378372631 -0.0049434744684319753 -0.0098754425843556731 0.00012618373422061698 -0.0015193961069763053 -0.0029137905546136808 0.00029313183493084378 -0.00055622420660978355 -0.0070658196296010702 -0.00015194108331106543 -0.002744699246250093 0.0050490969671057422 0.0020664413611586282 -0.00022469966767172411 0.00019848967129292678 0.0048516875016503041 0.0011447783702058219 0.0035082161821276938 -0.0036196593946266559 -0.0073928417043483009 0.0025313242372260038 -0.0069449683775084916 -0.0016304370202847947 -0.0032862779437279215 0.0029934012983727646
leaf_weight=2195 2527 18783 953 1412 623 276 95 93 34 1730 185 72 223 28 738 32 77 680 16139 11005 26 366 302 31 94 83 111 772 49 127
leaf_count=2195 2527 18783 953 1412 623 276 95 93 34 1730 185 72 223 28 738 32 77 680 16139 11005 26 366 302 31 94 83 111 772 49 127
internal_value=-1.60559e-11 0.000204406 -0.000136314 -0.00058885 -0.000316299 -0.00125621 -0.00276114 -0.00463487 -0.00719784 -0.000880488 -0.000472925 -0.00268578 -3.40654e-05 0.000581885 -0.000404668 -0.000480255 0.00276101 0.00141876 -4.81798e-05 0.000156494 2.5428e-05 -0.00112258 0.00147906 -0.00176438 -0.00355538 -0.00221441 -0.00433212 -0.00106532 -0.000465117 0.0016959
internal_weight=59861 23949 35912 5854 5166 1193 570 294 127 4442 2712 167 3973 1669 766 2304 109 903 30058 13919 12664 1659 1255 1293 363 269 186 930 75 158
internal_count=59861 23949 35912 5854 5166 1193 570 294 127 4442 2712 167 3973 1669 766 2304 109 903 30058 13919 12664 1659 1255 1293 363 269 186 930 75 158
is_linear=0
shrinkage=0.05


Tree=10
num_leaves=31
num_cat=0
split_feature=40 33 34 33 9 35 17 20 15 27 15 30 36 0 41 27 39 0 30 32 5 0 20 20 41 0 5 20 6 20
split_gain=0.628786 0.66571 0.586023 0.590348 0.773152 0.678336 0.643305 0.576826 0.572203 0.780639 0.572711 0.851654 0.694322 0.572447 0.516814 1.27256 0.608476 0.505527 0.497267 0.652034 0.589345 0.482754 0.710856 0.556251 0.709898 0.536172 0.472979 1.14974 0.702612 0.668869
threshold=1.5000000000000002 1.0000000180025095e-35 1.0000000180025095e-35 3.5000000000000004 2.5000000000000004 1.5000000000000002 1.5000000000000002 2.5000000000000004 1.5000000000000002 1.0000000180025095e-35 3.5000000000000004 1.5000000000000002 1.0000000180025095e-35 1.5000000000000002 2.5000000000000004 3.5000000000000004 1.5000000000000002 1.5000000000000002 3.5000000000000004 2.5000000000000004 1.0000000180025095e-35 3.5000000000000004 2.5000000000000004 1.0000000180025095e-35 1.0000000180025095e-35 1.5000000000000002 2.5000000000000004 2.5000000000000004 1.5000000000000002 1.0000000180025095e-35
decision_type=2 2 2 2 2 2 2 2 2 2 2 2 2 2 2 2 2 2 2 2 2 2 2 2 2 2 2 2 2 2
left_child=2 -2 21 -4 5 -5 -6 14 -3 10 13 -12 18 -10 -7 16 -16 -18 19 -13 -20 23 -23 24 25 -1 29 28 -28 -11
right_child=1 8 3 4 6 7 -8 -9 9 26 11 12 -14 -15 15 -17 17 -19 20 -21 -22 22 -24 -25 -26 -27 27 -29 -30 -31
leaf_value=0.0051927361433994779 -0.00027905514820869727 0.00053062140776204581 -0.00047174835608353893 -0.0016389654598638306 -0.00058783066781211248 0.00020761102091297742 0.0012599466806646926 0.0023663411578856222 0.0011233907014001406 0.0022762237360683113 -0.0015981429231860652 0.0025819555856287481 0.00021546431430956214 -0.0015485776180577517 0.0023300389997487846 -0.0066572514234804637 -0.0077079123235307637 -0.00029359913705639652 -0.0043998660235528781 0.0095447849353839619 0.0046614152664245156 -0.0019486282199907762 0.0031711359266881588 -6.7943793771811067e-05 0.00081005557707160909 -0.0010113626379858365 0.0014587183830873022 0.0013319121930082489 -0.00058829919953001407 -7.4684904126374441e-05
leaf_weight=167 7720 10810 14721 818 633 1268 1841 242 229 313 378 80 410 1608 129 102 35 67 34 58 38 416 81 1814 1570 44 530 2630 2005 9070
leaf_count=167 7720 10810 14721 818 633 1268 1841 242 229 313 378 80 410 1608 129 102 35 67 34 58 38 416 81 1814 1570 44 530 2630 2005 9070
internal_value=-1.51481e-11 0.00013233 -0.000198445 -0.000310728 0.000150883 -0.000440692 0.000787173 9.11517e-05 0.000244978 6.73448e-05 -0.000691683 0.00027248 0.00141296 -0.00121549 -0.000252756 -0.00200574 4.81686e-05 -0.00283773 0.00375092 0.00550836 0.000382477 0.000346397 -0.00111422 0.000548324 0.00117601 0.00389899 0.000215258 0.000599518 -0.000160323 3.73718e-06
internal_weight=59861 35913 23948 19856 5135 2661 2474 1843 28193 17383 2835 998 620 1837 1601 333 231 102 210 138 72 4092 497 3595 1781 211 14548 5165 2535 9383
internal_count=59861 35913 23948 19856 5135 2661 2474 1843 28193 17383 2835 998 620 1837 1601 333 231 102 210 138 72 4092 497 3595 1781 211 14548 5165 2535 9383
is_linear=0
shrinkage=0.05


Tree=11
num_leaves=31
num_cat=0
split_feature=15 14 33 32 34 19 41 16 12 31 26 20 12 17 0 34 35 32 39 26 5 19 34 14 34 5 16 20 27 15
split_gain=0.570745 0.642637 0.497712 0.566821 0.763143 0.708946 0.891941 0.711168 0.507594 0.501282 0.492982 0.899148 0.769826 0.532017 0.675798 0.509708 0.477477 0.51499 0.463223 0.689725 0.454124 0.629775 0.445265 0.412515 0.639615 0.688246 0.513478 0.810542 0.444904 0.534984
threshold=1.5000000000000002 1.5000000000000002 1.0000000180025095e-35 3.5000000000000004 1.5000000000000002 3.5000000000000004 2.5000000000000004 1.0000000180025095e-35 1.0000000180025095e-35 3.5000000000000004 3.5000000000000004 2.5000000000000004 1.5000000000000002 1.5000000000000002 1.5000000000000002 3.5000000000000004 3.5000000000000004 1.5000000000000002 1.0000000180025095e-35 3.5000000000000004 3.5000000000000004 1.5000000000000002 2.5000000000000004 1.0000000180025095e-35 2.5000000000000004 3.5000000000000004 3.5000000000000004 1.5000000000000002 1.0000000180025095e-35 3.5000000000000004
decision_type=2 2 2 2 2 2 2 2 2 2 2 2 2 2 2 2 2 2 2 2 2 2 2 2 2 2 2 2 2 2
left_child=1 10 3 4 -2 -5 7 -7 -9 -8 -1 -12 -13 -14 -15 -16 17 18 19 22 -20 -22 -6 24 -4 -26 -27 -28 29 -25
right_child=2 -3 23 5 16 6 9 8 -10 -11 11 12 13 14 15 -17 -18 -19 20 -21 21 -23 -24 28 25 26 27 -29 -30 -31
leaf_value=-3.7162652982320519e-05 -0.00040141198436799788 0.00032489062028336638 -0.00019661671694507665 -0.00011967621865819714 0.0023318031141834872 7.9050554984038879e-05 -0.0046316405502147976 0.0034634522059932352 0.012349346039506298 0.0028451779893800327 0.00011681974603888694 -0.0007347493931867074 -0.0025567718608650622 -0.010469352547079326 -0.0065847535431385043 0.0027565442997476331 -0.0036904941905628549 -0.0025984165612526859 -2.4402678658968711e-05 -0.0038683878878752391 -0.010596276670694352 -0.0017579313295965013 0.011403202079236507 -0.0010021247079186717 0.00065877520473751091 0.0018586185357089718 0.0085082330177595599 -0.0016383682592557029 -2.0175251701501251e-05 0.00014193404128907071
leaf_weight=3973 3132 18783 1762 1220 31 31 40 25 45 51 623 276 167 64 40 23 275 458 369 24 25 104 24 2722 1352 233 81 26 22246 1636
leaf_count=3973 3132 18783 1762 1220 31 31 40 25 45 51 623 276 167 64 40 23 275 458 369 24 25 104 24 2722 1352 233 81 26 22246 1636
internal_value=-2.09773e-12 0.000189058 -0.000126079 -0.000547866 -0.000825258 0.000324781 0.00314894 0.00638374 0.00917581 -0.000441336 -0.000304814 -0.00119616 -0.00263123 -0.0044116 -0.00685062 -0.00317444 -0.00183861 -0.00134656 -0.000352885 0.00320407 -0.000917141 -0.00347079 0.00629023 -4.39332e-05 0.000470137 0.00116447 0.00317537 0.0060427 -0.000110675 -0.000572643
internal_weight=59861 23949 35912 5854 4442 1412 192 101 70 91 5166 1193 570 294 127 63 1310 1035 577 79 498 129 55 30058 3454 1692 340 107 26604 4358
internal_count=59861 23949 35912 5854 4442 1412 192 101 70 91 5166 1193 570 294 127 63 1310 1035 577 79 498 129 55 30058 3454 1692 340 107 26604 4358
is_linear=0
shrinkage=0.05


Tree=12
num_leaves=31
num_cat=0
split_feature=40 34 27 9 16 30 0 39 12 17 35 40 23 15 25 31 41 35 27 34 35 35 0 9 17 0 23 27 9 25
split_gain=0.570611 0.537376 0.524566 0.685539 0.792737 0.525046 0.830542 0.80823 0.784589 0.526521 0.476846 0.670795 0.590186 0.468102 0.601014 0.567219 0.746478 0.601762 0.725161 0.65034 0.559955 0.719718 0.930859 0.548251 1.01802 0.754489 0.513113 0.557447 0.576123 0.508787
threshold=1.5000000000000002 1.0000000180025095e-35 3.5000000000000004 1.5000000000000002 1.5000000000000002 3.5000000000000004 3.5000000000000004 1.5000000000000002 1.5000000000000002 2.5000000000000004 2.5000000000000004 3.5000000000000004 3.5000000000000004 1.5000000000000002 1.5000000000000002 3.5000000000000004 1.0000000180025095e-35 1.0000000180025095e-35 2.5000000000000004 1.5000000000000002 1.5000000000000002 1.0000000180025095e-35 1.0000000180025095e-35 2.5000000000000004 1.0000000180025095e-35 3.5000000000000004 1.0000000180025095e-35 1.0000000180025095e-35 1.5000000000000002 1.0000000180025095e-35
decision_type=2 2 2 2 2 2 2 2 2 2 2 2 2 2 2 2 2 2 2 2 2 2 2 2 2 2 2 2 2 2
left_child=1 -1 13 4 -4 -6 7 9 -9 -7 -10 12 -12 14 20 17 -17 19 -19 23 21 26 -23 -16 25 -25 27 -2 29 -29
right_child=2 -3 3 -5 5 6 -8 8 10 -11 11 -13 -14 -15 15 16 -18 18 -20 -21 -22 22 -24 24 -26 -27 -28 28 -30 -31
leaf_value=0.0003326956803492891 0.0038209768772964748 -0.00029656422728977313 0.00078542321445756059 0.00091083754051956125 -0.0016759180834489584 0.0076214040673914414 0.010466690659523012 -0.0080674980392879143 -0.0030590285674197836 0.00095030292868614197 0.010873274641111493 -0.0049063690006732946 0.00092862581557317354 -0.00013644065523698269 3.2003456523324724e-06 -0.0023080542936163434 0.0040346896044120267 0.00093694703120478977 -0.00019328018079830124 0.00086757609230315622 0.00036829078898710364 -0.0054597883902747059 -0.0011689225252056535 -0.00038605061224050935 -0.0051467557703621103 -0.0074016577586895095 -0.0012120877338953669 -0.0026156498686127042 -0.0029990559944542508 0.006806435396796779
leaf_weight=4092 142 19856 1193 4235 887 42 20 42 87 100 25 24 37 16885 916 59 217 5043 1975 835 1173 174 462 587 176 41 382 23 93 38
leaf_count=4092 142 19856 1193 4235 887 42 20 42 87 100 25 24 37 16885 916 59 217 5043 1975 835 1173 174 462 587 176 41 382 23 93 38
internal_value=-8.92485e-12 -0.000189042 0.00012606 0.000525373 -0.000139031 -0.00101156 0.000551541 -3.9299e-06 -0.00193736 0.00292345 -0.000449117 0.00219114 0.00493856 3.46117e-05 0.000268741 0.000444116 0.00267881 0.000379687 0.000618879 -0.000277319 -0.000425777 -0.00113464 -0.00234284 -0.000833126 -0.00178596 -0.000844076 -1.27789e-06 0.00156132 -0.000522257 0.00325385
internal_weight=59861 23948 35913 6692 2457 1264 377 357 215 142 173 86 62 29221 12336 9849 276 9573 7018 2555 2487 1314 636 1720 804 628 678 296 154 61
internal_count=59861 23948 35913 6692 2457 1264 377 357 215 142 173 86 62 29221 12336 9849 276 9573 7018 2555 2487 1314 636 1720 804 628 678 296 154 61
is_linear=0
shrinkage=0.05


Tree=13
num_leaves=31
num_cat=0
split_feature=40 33 11 26 32 33 39 23 32 39 5 30 27 6 25 16 12 31 25 9 5 23 26 6 32 0 10 10 25 9
split_gain=0.514977 0.578485 0.519312 0.846616 0.777036 0.545302 0.720501 0.738355 0.543626 0.717999 0.636758 0.550027 0.588691 0.538776 0.538365 0.584802 0.536112 0.81057 0.59636 0.802058 0.530375 0.495115 0.984568 1.00453 0.719831 0.625295 1.0684 0.720828 0.572783 0.560867
threshold=1.5000000000000002 1.0000000180025095e-35 3.5000000000000004 1.5000000000000002 1.5000000000000002 3.5000000000000004 2.5000000000000004 3.5000000000000004 2.5000000000000004 1.5000000000000002 1.0000000180025095e-35 2.5000000000000004 2.5000000000000004 2.5000000000000004 1.0000000180025095e-35 2.5000000000000004 3.5000000000000004 1.0000000180025095e-35 3.5000000000000004 3.5000000000000004 3.5000000000000004 3.5000000000000004 1.0000000180025095e-35 1.5000000000000002 1.5000000000000002 1.5000000000000002 2.5000000000000004 3.5000000000000004 1.5000000000000002 1.5000000000000002
decision_type=2 2 2 2 2 2 2 2 2 2 2 2 2 2 2 2 2 2 2 2 2 2 2 2 2 2 2 2 2 2
left_child=2 -2 3 5 16 -1 7 14 10 -10 11 12 -4 -8 15 -7 -5 18 -18 -20 -11 24 -23 -24 28 26 -26 -27 -12 -30
right_child=1 -3 8 4 -6 6 13 -9 9 20 21 -13 -14 -15 -16 -17 17 -19 19 -21 -22 22 23 -25 25 27 -28 -29 29 -31
leaf_value=-0.00015727121853273385 -0.0002637314124737379 0.0002247663213679592 0.0021063732134329305 -0.0012147326064793533 -0.00018756688010349975 -0.0063718506755928205 0.00014977521736528622 -0.0017000718648993074 0.00046520571761150971 -0.0014128809723793487 0.0012745968658815733 0.0009744774632983738 0.0078637177879745893 0.0025414609631826714 0.001448223415158085 0.0027206126068319595 0.00039011178437821169 -0.0011594684734756563 0.0021012924894501894 0.010790951848030091 -0.0066954186329474825 -0.0015140629691995069 0.0074176687253526899 0.0015489015653729439 0.0017867475748062135 0.00088637911152131493 0.011626957191361323 -0.007650529650541452 0.00025262644214014854 -0.0019294768460512458
leaf_weight=5477 7720 28193 111 4568 6054 48 358 439 727 551 308 315 74 688 592 28 167 405 79 40 52 231 83 600 118 505 36 26 465 803
leaf_count=5477 7720 28193 111 4568 6054 48 358 439 727 551 308 315 74 688 592 28 167 405 79 40 52 231 83 600 118 505 36 26 465 803
internal_value=1.70487e-12 0.000119757 -0.00017959 -0.000299272 -0.000573785 0.000107748 0.000781927 -0.000107186 0.000273382 -0.000592823 0.000586866 0.00224537 0.00440931 0.00172289 0.000939636 -0.003022 -0.00101839 0.000279601 0.00231744 0.00502219 -0.00186842 0.000325685 0.00130772 0.00226209 -7.12996e-05 0.00128192 0.00408706 0.000468376 -0.000659469 -0.00112926
internal_weight=59861 35913 23948 18943 11313 7630 2153 1107 5005 1330 3675 500 185 1046 668 76 5259 691 286 119 603 3175 914 683 2261 685 154 531 1576 1268
internal_count=59861 35913 23948 18943 11313 7630 2153 1107 5005 1330 3675 500 185 1046 668 76 5259 691 286 119 603 3175 914 683 2261 685 154 531 1576 1268
is_linear=0
shrinkage=0.05


Tree=14
num_leaves=31
num_cat=0
split_feature=40 33 34 33 9 35 17 16 6 17 11 16 36 20 12 20 36 11 26 17 11 11 36 23 32 6 23 19 12 35
split_gain=0.464766 0.522082 0.494227 0.475558 0.680915 0.613311 0.565741 1.01247 0.582591 0.559791 1.11195 0.55993 0.50086 0.468667 0.970808 0.725027 0.491945 0.884102 0.465027 0.544629 0.461315 0.709069 0.456098 0.540339 0.572869 0.804813 0.642648 0.510067 0.448118 0.531238
threshold=1.5000000000000002 1.0000000180025095e-35 1.0000000180025095e-35 3.5000000000000004 2.5000000000000004 1.5000000000000002 1.5000000000000002 1.5000000000000002 3.5000000000000004 1.5000000000000002 2.5000000000000004 1.5000000000000002 1.5000000000000002 1.0000000180025095e-35 1.5000000000000002 1.5000000000000002 2.5000000000000004 1.5000000000000002 2.5000000000000004 2.5000000000000004 3.5000000000000004 1.5000000000000002 1.5000000000000002 2.5000000000000004 1.0000000180025095e-35 3.5000000000000004 1.0000000180025095e-35 2.5000000000000004 1.5000000000000002 2.5000000000000004
decision_type=2 2 2 2 2 2 2 2 2 2 2 2 2 2 2 2 2 2 2 2 2 2 2 2 2 2 2 2 2 2
left_child=2 -2 -1 20 5 13 -6 8 -8 10 11 -7 -12 14 -5 -15 17 -16 -18 -20 21 28 27 24 25 -24 -26 -22 29 -4
right_child=1 -3 3 4 6 9 7 -9 -10 -11 12 -13 -14 15 16 -17 18 -19 19 -21 22 -23 23 -25 26 -27 -28 -29 -30 -31
leaf_value=0.00032974221854590842 -0.00025054481749089887 0.00021352796570125681 -9.6302447845848026e-05 0.0017395316199822861 -0.00055173586518466949 -0.002699543493852187 0.0009620657680850281 0.0019762965679924987 -0.0022109679553819739 -0.00023135488081831468 0.0098331392915160572 0.004046707219899969 0.0019389890134334565 0.0011663023630777995 0.003933558509100315 -0.0029798384174446152 -0.0042688584197782169 -0.0050814073734186792 -0.016408240902237595 -0.0058252212501341306 0.0017719173306101435 -0.00098537528143799956 -0.0021383192882222951 0.00043144877784508323 0.005490174335102703 -0.010645183175802231 -0.0008301283960557061 -0.0010645020180023634 8.0333898415979196e-06 -0.0021144030314467527
leaf_weight=4092 7720 28193 706 88 633 89 304 1261 276 1621 54 47 32 270 43 173 119 74 20 31 666 5333 212 1210 43 32 622 208 5083 606
leaf_count=4092 7720 28193 706 88 633 89 304 1261 276 1621 54 47 32 270 43 173 119 74 20 31 666 5333 212 1210 43 32 622 208 5083 606
internal_value=-8.1743e-12 0.000113769 -0.000170611 -0.000273726 0.000140583 -0.000414584 0.000737713 0.00118107 -0.000547861 9.11268e-05 0.00244582 -0.000368119 0.00689578 -0.00155398 -0.00285478 -0.000452845 -0.00426349 -0.00176821 -0.00598083 -0.00997543 -0.000418245 -0.000559643 0.000135817 -0.000260585 -0.00118177 -0.00325397 -0.000421447 0.00109689 -0.00020461 -0.00102844
internal_weight=59861 35913 23948 19856 5135 2661 2474 1841 580 1843 222 136 86 818 375 443 287 117 170 51 14721 11728 2993 2119 909 244 665 874 6395 1312
internal_count=59861 35913 23948 19856 5135 2661 2474 1841 580 1843 222 136 86 818 375 443 287 117 170 51 14721 11728 2993 2119 909 244 665 874 6395 1312
is_linear=0
shrinkage=0.05


Tree=15
num_leaves=31
num_cat=0
split_feature=15 14 14 20 26 0 39 29 36 11 29 33 29 33 34 36 9 30 12 5 32 14 20 33 27 9 11 35 9 11
split_gain=0.498402 0.567517 0.472132 0.944394 0.572034 0.635402 0.564971 0.517407 0.50849 0.493489 0.474558 0.456074 0.466781 0.453944 0.450881 0.693579 0.771847 0.759784 0.744028 0.889628 0.695884 0.645168 0.578557 0.703846 0.528599 0.520503 0.485387 0.473357 0.439127 0.436664
threshold=1.5000000000000002 1.5000000000000002 1.5000000000000002 2.5000000000000004 1.0000000180025095e-35 1.0000000180025095e-35 3.5000000000000004 3.5000000000000004 2.5000000000000004 1.0000000180025095e-35 3.5000000000000004 3.5000000000000004 3.5000000000000004 1.0000000180025095e-35 2.5000000000000004 2.5000000000000004 2.5000000000000004 1.0000000180025095e-35 3.5000000000000004 2.5000000000000004 1.0000000180025095e-35 1.0000000180025095e-35 1.5000000000000002 2.5000000000000004 3.5000000000000004 3.5000000000000004 3.5000000000000004 1.5000000000000002 3.5000000000000004 3.5000000000000004
decision_type=2 2 2 2 2 2 2 2 2 2 2 2 2 2 2 2 2 2 2 2 2 2 2 2 2 2 2 2 2 2
left_child=1 11 3 6 7 8 14 -5 10 13 -6 29 -13 -8 -2 25 21 20 19 24 -18 -17 23 -21 -19 -16 -26 -23 -20 -1
right_child=2 -3 -4 4 5 -7 9 -9 -10 -11 -12 12 -14 -15 15 16 17 18 28 22 -22 27 -24 -25 26 -27 -28 -29 -30 -31
leaf_value=-0.00070431680620782779 -0.00090474775910582683 0.00030431732331475834 -0.00021444664700685063 0.0027821401945142526 -0.0033731555217725272 0.00096712214382071245 0.0037228885534647351 -0.0015878127092816743 0.0008528755097598821 0.0015289523736548029 0.0036437499722793559 0.00064608040129592232 0.0065890919087853821 -0.0024117877146949069 0.0012480869112101271 6.935590852613318e-05 -0.0083683033121558711 -0.0054542167577892545 0.0015251376259494836 -0.0031401984531570365 -1.2399779592195283e-05 -0.0001504567432768491 -0.0011637698811820792 0.0058017029826130185 0.0040541539207482949 0.0069511307911439384 -0.0053744592836924964 -0.0042367843765532603 0.0068242714322846515 0.00052926003398980699
leaf_weight=3648 2324 18783 27967 563 224 1862 37 77 182 724 27 590 35 163 441 292 39 80 71 27 69 98 79 119 39 44 21 256 87 893
leaf_count=3648 2324 18783 27967 563 224 1862 37 77 182 724 27 590 35 163 441 292 39 80 71 27 69 98 79 119 39 44 21 256 87 893
internal_value=-4.72346e-12 0.00017667 -0.000117818 0.000222322 0.000934543 0.000565926 -0.000194917 0.00225638 -0.00115931 0.000921631 -0.00261835 -0.00028744 0.000978889 -0.00127687 -0.000447411 0.000155797 -0.000455554 0.000788221 0.00157665 0.000335864 -0.00302981 -0.00167045 0.00228302 0.00414806 -0.00279349 0.00176548 0.000754139 -0.00310554 0.00444302 -0.000461731
internal_weight=59861 23949 35912 7945 2935 2295 5010 640 433 924 251 5166 625 200 4086 1762 1277 631 523 365 108 646 225 146 140 485 60 354 158 4541
internal_count=59861 23949 35912 7945 2935 2295 5010 640 433 924 251 5166 625 200 4086 1762 1277 631 523 365 108 646 225 146 140 485 60 354 158 4541
is_linear=0
shrinkage=0.05


Tree=16
num_leaves=31
num_cat=0
split_feature=33 27 23 11 17 35 32 26 16 14 5 35 41 30 25 29 32 34 32 5 9 30 30 39 23 14 32 6 35 32
split_gain=0.406524 0.492014 0.637347 0.528483 0.633637 0.582472 0.714133 0.495076 0.47287 0.528963 0.447472 0.65113 0.700579 0.633963 0.440206 0.426184 0.598899 0.423235 0.411736 0.710099 0.653871 0.644897 0.580459 0.535739 0.462575 0.409907 0.409719 0.409594 0.906617 0.891733
threshold=1.0000000180025095e-35 2.5000000000000004 1.0000000180025095e-35 1.0000000180025095e-35 2.5000000000000004 3.5000000000000004 3.5000000000000004 2.5000000000000004 3.5000000000000004 1.5000000000000002 3.5000000000000004 1.0000000180025095e-35 2.5000000000000004 2.5000000000000004 2.5000000000000004 1.0000000180025095e-35 3.5000000000000004 1.5000000000000002 1.5000000000000002 3.5000000000000004 3.5000000000000004 1.5000000000000002 2.5000000000000004 2.5000000000000004 1.0000000180025095e-35 1.5000000000000002 2.5000000000000004 1.0000000180025095e-35 2.5000000000000004 1.5000000000000002
decision_type=2 2 2 2 2 2 2 2 2 2 2 2 2 2 2 2 2 2 2 2 2 2 2 2 2 2 2 2 2 2
left_child=1 2 15 18 5 6 7 14 9 -7 -4 12 13 -12 -5 16 -1 -13 21 -20 -21 23 -23 25 -22 -3 -10 28 29 -2
right_child=27 3 10 4 -6 8 -8 -9 26 -11 11 17 -14 -15 -16 -17 -18 -19 19 20 24 22 -24 -25 -26 -27 -28 -29 -30 -31
leaf_value=0.00044864658314054396 -0.00098033866256250256 -0.0019363178965868429 -0.00028932977554049311 0.00040866619064694362 3.234081607508032e-05 -0.0064903954473825611 -0.0052932548633915317 -0.0028891148077229323 0.00086704091592268516 -8.8864329823835651e-05 0.00071979106468116419 -0.0011395345245088851 -0.0043909911953267603 0.0084609432525834753 -0.0050341777330221134 0.00022031065727448696 0.0068496940499645168 -0.0037224952054434809 0.00035709572155665989 0.00072112209869153578 0.0048522683978080754 -0.0091274954378604885 -0.001562135026830694 -0.0028616704192816044 0.015606041252613069 0.00556606133472793 0.0085868524312973024 3.4884760029237815e-06 0.0011217933074257841 0.00049608339219403693
leaf_weight=96 1588 25 3843 273 608 39 188 472 55 187 87 350 42 38 43 4682 59 290 263 33 20 35 92 51 20 67 25 40644 2773 2873
leaf_count=96 1588 25 3843 273 608 39 188 472 55 187 87 350 42 38 43 4682 59 290 263 33 20 35 92 51 20 67 25 40644 2773 2873
internal_value=3.96871e-12 -0.000260451 -9.61149e-05 -0.000885074 -0.00129705 -0.00192752 -0.00252428 -0.00186366 -2.41323e-05 -0.00119355 -0.000514094 -0.00158444 0.0011959 0.0030731 -0.000331974 0.000305705 0.00288517 -0.00230994 0.000399791 0.00156809 0.005931 -0.0010541 -0.00364708 0.00124876 0.0102292 0.00352737 0.00327948 6.51863e-05 0.000411833 -2.94845e-05
internal_weight=59861 11983 9487 2496 1890 1282 976 788 306 226 4650 807 167 125 316 4837 155 640 606 336 73 270 127 143 40 92 80 47878 7234 4461
internal_count=59861 11983 9487 2496 1890 1282 976 788 306 226 4650 807 167 125 316 4837 155 640 606 336 73 270 127 143 40 92 80 47878 7234 4461
is_linear=0
shrinkage=0.05


Tree=17
num_leaves=31
num_cat=0
split_feature=40 27 9 32 16 40 10 35 10 34 9 11 20 19 25 11 40 11 35 30 40 32 34 11 0 20 9 41 20 30
split_gain=0.408144 0.453648 0.620593 0.767312 0.714271 0.687242 0.622719 0.615882 0.472418 0.613844 0.447303 0.65614 0.601397 0.873629 0.611527 0.612661 0.599345 0.62178 0.732293 0.61195 0.58857 0.469277 0.445354 0.444036 0.427293 0.823413 0.814276 0.762595 0.738816 0.513222
threshold=1.5000000000000002 3.5000000000000004 1.5000000000000002 1.0000000180025095e-35 1.5000000000000002 3.5000000000000004 1.5000000000000002 1.0000000180025095e-35 3.5000000000000004 3.5000000000000004 2.5000000000000004 1.0000000180025095e-35 3.5000000000000004 3.5000000000000004 1.0000000180025095e-35 3.5000000000000004 2.5000000000000004 3.5000000000000004 3.5000000000000004 3.5000000000000004 3.5000000000000004 1.5000000000000002 1.0000000180025095e-35 3.5000000000000004 2.5000000000000004 1.0000000180025095e-35 1.5000000000000002 1.0000000180025095e-35 2.5000000000000004 1.5000000000000002
decision_type=2 2 2 2 2 2 2 2 2 2 2 2 2 2 2 2 2 2 2 2 2 2 2 2 2 2 2 2 2 2
left_child=22 -2 3 7 5 -5 -7 -3 -6 -10 11 20 14 -14 15 -13 -16 19 -19 21 -4 -18 24 -9 25 27 -26 -1 -28 -30
right_child=1 2 10 4 8 6 -8 23 9 -11 -12 12 13 -15 16 -17 17 18 -20 -21 -22 -23 -24 -25 26 -27 28 -29 29 -31
leaf_value=0.0043795812071133339 2.1571681887122512e-05 -0.0037106855852263318 -0.0020770258839065965 -0.00015675785851343877 -0.0010182202988069055 -0.0025788896903395655 0.004358814304044261 0.0050736222546417398 -0.001683487223856377 -0.0097288325026228632 0.00050669788548039806 0.010093186742493085 0.0011943627012575547 -0.008327274597608127 0.00090650980866033282 0.0016603682722364154 -0.00091081207307676468 0.0053466457252701128 -0.0032176194282678458 0.011535158350660995 0.0038561215003331505 0.0058278841126960619 -0.00025776421994955478 0.00034400326640982379 0.0012510517376592789 -0.00023095574548722531 -0.002647203268165465 0.00098506147690470189 0.006333126872777939 -0.0011642086505889893
leaf_weight=187 29221 35 185 885 1006 40 169 143 66 37 2956 56 328 26 306 35 33 48 52 37 54 119 19856 76 348 1566 463 1436 42 50
leaf_count=187 29221 35 185 885 1006 40 169 143 66 37 2956 56 328 26 306 35 33 48 52 37 54 119 19856 76 348 1566 463 1436 42 50
internal_value=-4.11576e-12 0.000106614 0.000477955 -0.000154194 -0.000454223 0.000452243 0.00303102 0.00244802 -0.00134843 -0.00457356 0.000844706 0.0016259 0.0021688 0.000495033 0.00303252 0.0068498 0.0024487 0.00408161 0.000893228 0.00576858 -0.000736482 0.00436488 -0.000159881 0.00343229 0.000315089 0.000586972 -0.000645081 0.00137617 -0.00183401 0.00225849
internal_weight=59861 35913 6692 2457 2203 1094 209 254 1109 103 4235 1279 1040 354 686 91 595 289 100 189 239 152 23948 219 4092 3189 903 1623 555 92
internal_count=59861 35913 6692 2457 2203 1094 209 254 1109 103 4235 1279 1040 354 686 91 595 289 100 189 239 152 23948 219 4092 3189 903 1623 555 92
is_linear=0
shrinkage=0.05


Tree=18
num_leaves=31
num_cat=0
split_feature=33 40 30 6 35 20 32 34 31 35 26 26 19 17 31 40 11 23 34 29 9 6 11 35 20 23 26 23 32 31
split_gain=0.369784 0.465634 0.389693 0.468344 0.931518 0.632037 0.591062 0.630429 0.947192 0.679512 0.599402 0.954377 0.796456 0.586481 0.557741 0.574463 0.511957 0.736852 0.495804 0.624677 0.610827 0.600533 0.576233 0.495489 0.817257 0.655913 0.47652 0.472103 0.452729 0.909375
threshold=1.0000000180025095e-35 1.5000000000000002 2.5000000000000004 1.0000000180025095e-35 3.5000000000000004 1.5000000000000002 1.5000000000000002 3.5000000000000004 3.5000000000000004 1.0000000180025095e-35 3.5000000000000004 1.0000000180025095e-35 1.5000000000000002 1.0000000180025095e-35 1.0000000180025095e-35 2.5000000000000004 1.0000000180025095e-35 2.5000000000000004 3.5000000000000004 2.5000000000000004 1.5000000000000002 3.5000000000000004 1.5000000000000002 2.5000000000000004 1.5000000000000002 3.5000000000000004 2.5000000000000004 3.5000000000000004 1.5000000000000002 1.5000000000000002
decision_type=2 2 2 2 2 2 2 2 2 2 2 2 2 2 2 2 2 2 2 2 2 2 2 2 2 2 2 2 2 2
left_child=-1 -2 -3 4 5 -4 7 9 -9 16 11 -11 -12 26 -14 -16 17 -5 -8 20 21 -20 -23 27 25 -25 -13 -15 29 -7
right_child=1 2 3 6 -6 28 18 8 -10 10 12 13 14 23 15 -17 -18 -19 19 -21 -22 22 -24 24 -26 -27 -28 -29 -30 -31
leaf_value=-0.00024840312208958086 -0.00012443586900084643 3.7570964330090926e-05 0.0034645873446797221 0.0022227102556289769 0.003618664861475147 -0.0040733829652890565 0.00021503901122203425 0.0014640823883168839 0.0078911120774315998 0.0014750239774734683 0.0070143453296153783 -0.0058264891399401374 -0.007276555523276329 0.0010493034405434239 -0.001331068422838018 0.0032607349132498104 0.0032130363219210348 -0.006056605134068466 -0.00038013808228015483 -0.0047890589414792458 0.00048565506158281842 -0.00098640038719717072 -0.0059708703542128211 -0.010999212944880129 -0.0011026176160255088 -8.6856668903714139e-05 0.00051304625301826299 -0.0026198334923577967 0.00089654433028549675 0.0007653347846226172
leaf_weight=11983 19685 16640 172 78 318 160 4975 952 61 497 62 107 20 448 116 165 319 41 320 95 633 106 128 40 486 21 41 109 836 247
leaf_count=11983 19685 16640 172 78 318 160 4975 952 61 497 62 107 20 448 116 165 319 41 320 95 633 106 128 40 486 21 41 109 836 247
internal_value=2.495e-12 6.21708e-05 0.000192464 0.000415559 0.00117337 0.000623828 0.000281823 0.000795874 0.0018511 0.00037668 4.9832e-06 -0.00037876 0.00185393 -0.00111465 0.000790984 0.00136519 0.00216897 -0.000629827 -1.08991e-05 -0.000887687 -0.000575446 -0.00178786 -0.00371295 -0.000718423 -0.00178732 -0.0072425 -0.00407027 0.000331286 0.000230738 -0.00113686
internal_weight=59861 47878 28193 11553 1733 1415 9820 3563 1013 2550 2112 1749 363 1252 301 281 438 119 6257 1282 1187 554 234 1104 547 61 148 557 1243 407
internal_count=59861 47878 28193 11553 1733 1415 9820 3563 1013 2550 2112 1749 363 1252 301 281 438 119 6257 1282 1187 554 234 1104 547 61 148 557 1243 407
is_linear=0
shrinkage=0.05


Tree=19
num_leaves=31
num_cat=0
split_feature=33 27 23 11 17 10 32 31 16 31 26 32 32 5 11 35 26 40 5 35 41 39 41 19 11 40 0 41 40 0
split_gain=0.33373 0.4444 0.565907 0.476339 0.570538 0.642283 0.712715 0.592823 0.585084 0.797653 0.569153 0.657152 0.548935 0.501532 0.491687 0.433248 0.423662 0.420235 0.403733 0.585302 0.632234 0.445329 0.411493 0.482142 0.797626 0.693755 0.539388 0.621242 0.51984 0.500916
threshold=1.0000000180025095e-35 2.5000000000000004 1.0000000180025095e-35 1.0000000180025095e-35 2.5000000000000004 1.0000000180025095e-35 3.5000000000000004 1.5000000000000002 2.5000000000000004 1.5000000000000002 2.5000000000000004 1.5000000000000002 1.0000000180025095e-35 1.5000000000000002 3.5000000000000004 2.5000000000000004 3.5000000000000004 1.5000000000000002 3.5000000000000004 1.0000000180025095e-35 2.5000000000000004 1.5000000000000002 3.5000000000000004 1.5000000000000002 3.5000000000000004 1.5000000000000002 1.5000000000000002 1.0000000180025095e-35 3.5000000000000004 1.0000000180025095e-35
decision_type=2 2 2 2 2 2 2 2 2 2 2 2 2 2 2 2 2 2 2 2 2 2 2 2 2 2 2 2 2 2
left_child=1 2 -1 -3 5 7 10 16 -8 -10 12 -12 -7 -13 -15 -11 -5 -2 22 20 21 -20 23 24 25 -4 27 -25 -26 -27
right_child=17 3 18 4 -6 6 8 -9 9 15 11 13 -14 14 -16 -17 -18 -19 19 -21 -22 -23 -24 26 28 29 -28 -29 -30 -31
leaf_value=0.000298830630973811 -0.0001182140872840019 0.00039021884254103055 -0.0045936151332146421 -0.010529607891415556 4.0725260776908775e-05 0.0044517234471198675 -0.00069855912526448571 9.5786192478277749e-05 0.0025560640330825534 -0.0055566120592336508 -0.0034860044371250068 -0.0021781197005464126 -0.00031712031510262682 0.00034162374748580756 0.0075094643867377082 -0.012282831699420245 -0.0038512126879489171 0.00018284072036399489 -0.0039091070811264218 -0.0021781963738612834 -0.0041616821218104592 0.0042314850871584247 0.001301728753667129 -0.00082801425360082617 0.0030360490318358416 -0.0044350364126351681 -0.00036670650736953512 0.0038144815755986623 -0.0041858357767904962 -9.8383266605057959e-05
leaf_weight=4837 19685 606 222 48 608 74 75 39 21 62 301 129 327 87 33 39 47 28193 20 640 42 105 380 123 127 86 2405 174 31 295
leaf_count=4837 19685 606 222 48 608 74 75 39 21 62 301 129 327 87 33 39 47 28193 20 640 42 105 380 123 127 86 2405 174 31 295
internal_value=-2.95104e-12 -0.000235983 -7.98006e-05 -0.000829614 -0.00122073 -0.00181899 -0.00143663 -0.00509472 -0.00417388 -0.00631035 -0.000869613 -0.00191406 0.000562916 -1.38307e-05 0.00231278 -0.00815387 -0.00722556 5.90623e-05 -0.000473659 -0.00149035 0.00114571 0.00292899 -0.000260161 -0.00043155 -0.00154323 -0.00237184 -0.000118451 0.00189183 0.0016191 -0.00107726
internal_weight=59861 11983 9487 2496 1890 1282 1148 134 197 122 951 550 401 249 120 101 95 47878 4650 807 167 125 3843 3463 761 603 2702 297 158 381
internal_count=59861 11983 9487 2496 1890 1282 1148 134 197 122 951 550 401 249 120 101 95 47878 4650 807 167 125 3843 3463 761 603 2702 297 158 381
is_linear=0
shrinkage=0.05


Tree=20
num_leaves=31
num_cat=0
split_feature=27 40 17 11 11 33 9 12 25 30 25 39 6 39 16 16 11 36 35 31 16 25 39 0 25 35 41 35 12 14
split_gain=0.305156 0.525399 0.909872 0.648808 0.634483 0.622916 2.12367 0.718935 0.683492 0.609826 1.14193 0.588094 0.651008 0.587396 0.495661 0.454242 0.473194 0.469002 0.464463 0.445238 0.448791 1.17589 0.820761 0.626967 0.522513 0.476896 0.441191 0.440913 0.440594 0.520573
threshold=3.5000000000000004 2.5000000000000004 3.5000000000000004 3.5000000000000004 2.5000000000000004 3.5000000000000004 2.5000000000000004 3.5000000000000004 1.0000000180025095e-35 1.0000000180025095e-35 2.5000000000000004 1.0000000180025095e-35 1.0000000180025095e-35 2.5000000000000004 3.5000000000000004 2.5000000000000004 2.5000000000000004 3.5000000000000004 2.5000000000000004 1.5000000000000002 2.5000000000000004 3.5000000000000004 2.5000000000000004 1.0000000180025095e-35 1.5000000000000002 2.5000000000000004 1.0000000180025095e-35 2.5000000000000004 1.0000000180025095e-35 1.5000000000000002
decision_type=2 2 2 2 2 2 2 2 2 2 2 2 2 2 2 2 2 2 2 2 2 2 2 2 2 2 2 2 2 2
left_child=-1 2 5 4 19 7 15 11 -9 10 -8 12 14 27 -2 -7 -17 -18 -19 20 23 22 25 24 -3 -22 -23 -10 -11 -30
right_child=1 3 -4 -5 -6 6 9 8 13 28 -12 -13 -14 -15 -16 16 17 18 -20 -21 21 26 -24 -25 -26 -27 -28 -29 29 -31
leaf_value=-5.6456658390678053e-05 0.0021080539273701129 -0.0046838706147067158 0.00058232567217529607 -0.00046148763267818356 0.0023333863121747316 -0.00042176339019268645 -0.0038381019409965064 0.00229850634932518 -0.0087805503922881497 -0.00069192547562124673 0.0072433833032846456 -0.00098505159162513845 -0.00023269919298028434 0.00053174078751068855 0.0091000097413216872 -0.0012662600924950522 -0.0026459752596341649 -0.0038052769807668837 -0.012740965323014695 0.00021685989021905358 0.0060287340119350372 -0.006158381210116204 0.0096369030709202233 0.0022283211971322698 0.001294862314620439 -0.00052832411429672328 0.0012255339045077562 -0.0037999593543217463 0.0072411622313327748 0.002918111201111085
leaf_weight=47885 139 79 3571 937 726 271 85 48 66 64 32 2282 465 52 31 131 65 26 33 1705 57 32 74 240 68 54 55 136 86 366
leaf_count=47885 139 79 3571 937 726 271 85 48 66 64 32 2282 465 52 31 131 65 26 33 1705 57 32 74 240 68 54 55 136 86 366
internal_value=6.99045e-12 0.000225737 -9.98118e-06 0.000691028 0.00104051 -0.000493108 0.000500845 -0.00085098 -0.00317328 0.00245187 -0.000807268 -0.00061055 0.000735299 -0.00420732 0.00338306 -0.00184706 -0.00336179 -0.00557562 -0.0088032 0.000643462 0.00174719 0.00330359 0.00555805 0.000653287 -0.0019182 0.00283881 -0.00149039 -0.00542728 0.00319086 0.00374064
internal_weight=59861 11976 7949 4027 3090 4378 1159 3219 302 633 117 2917 635 254 170 526 255 124 59 2364 659 272 185 387 147 111 87 202 516 452
internal_count=59861 11976 7949 4027 3090 4378 1159 3219 302 633 117 2917 635 254 170 526 255 124 59 2364 659 272 185 387 147 111 87 202 516 452
is_linear=0
shrinkage=0.05


Tree=21
num_leaves=31
num_cat=0
split_feature=33 40 10 0 32 0 39 41 34 6 17 16 12 40 10 26 11 14 25 14 11 25 40 12 25 31 39 14 6 32
split_gain=0.296261 0.370532 0.365331 0.637344 0.709345 0.579612 0.509034 0.744756 0.52625 0.500329 0.481306 0.562064 0.692284 0.4696 0.467764 0.467367 0.720359 0.591562 0.439763 0.525105 0.433717 0.760094 0.58484 0.523913 0.389488 0.386154 0.495894 0.376707 0.462092 0.427119
threshold=1.0000000180025095e-35 1.5000000000000002 1.0000000180025095e-35 1.5000000000000002 2.5000000000000004 1.0000000180025095e-35 1.5000000000000002 2.5000000000000004 2.5000000000000004 1.5000000000000002 1.5000000000000002 3.5000000000000004 1.5000000000000002 3.5000000000000004 1.5000000000000002 3.5000000000000004 1.5000000000000002 2.5000000000000004 1.0000000180025095e-35 2.5000000000000004 1.0000000180025095e-35 2.5000000000000004 1.5000000000000002 1.5000000000000002 3.5000000000000004 2.5000000000000004 2.5000000000000004 1.5000000000000002 1.5000000000000002 1.5000000000000002
decision_type=2 2 2 2 2 2 2 2 2 2 2 2 2 2 2 2 2 2 2 2 2 2 2 2 2 2 2 2 2 2
left_child=2 -2 5 4 10 9 8 13 15 -1 11 20 14 25 -13 18 -17 -18 19 -6 21 22 -4 -23 -16 26 -8 -12 29 -29
right_child=1 -3 3 -5 6 -7 7 -9 -10 -11 27 12 -14 -15 24 16 17 -19 -20 -21 -22 23 -24 -25 -26 -27 -28 28 -30 -31
leaf_value=-0.0035948601808616326 -0.00011081503768060484 0.00017187645219434756 0.011453443705230146 -0.00032565534469797936 -0.0097902982828340368 -0.0003804556779012606 0.0076482916736732359 -0.0036822860957019862 -0.0053275514642397567 0.0012224358704053997 -0.0024166791163610694 0.00034787279596044262 0.00099316239356994629 0.00247753779953859 0.010442614021259502 -0.00068509095423930407 0.002373290612645771 0.01303148296972116 0.0014265883916125793 0.00126336326145313 0.00059791621449705845 -0.0023819174398394191 0.0034606647739807771 0.0038716165179556068 0.0028868856353928217 -0.0028557449173765119 -0.00094805892496820424 0.0058725932793271159 -0.0017287965302597989 -0.0019832389739652474
leaf_weight=294 19685 28193 37 8312 21 1028 23 216 30 66 132 22 91 127 66 37 23 30 205 22 616 68 60 66 23 147 62 62 73 24
leaf_count=294 19685 28193 37 8312 21 1028 23 216 30 66 132 22 91 127 66 37 23 30 205 22 616 68 60 66 23 147 62 62 73 24
internal_value=-3.19752e-12 5.56481e-05 -0.000222342 -0.000122416 0.00061754 -0.000985098 -0.000433071 -0.00136242 0.00101903 -0.00271169 0.00135689 0.00185599 0.00422595 3.33812e-05 0.00687625 0.00158234 0.00466869 0.00840623 0.000462292 -0.00413494 0.00129078 0.00313841 0.00650946 0.000698181 0.00849001 -0.00130458 0.00137801 -0.000442271 0.00119686 0.00368027
internal_weight=59861 47878 11983 10595 2283 1388 943 575 368 360 1340 1049 202 359 111 338 90 53 248 43 847 231 97 134 89 232 85 291 159 86
internal_count=59861 47878 11983 10595 2283 1388 943 575 368 360 1340 1049 202 359 111 338 90 53 248 43 847 231 97 134 89 232 85 291 159 86
is_linear=0
shrinkage=0.05


Tree=22
num_leaves=31
num_cat=0
split_feature=15 26 0 32 6 17 25 16 10 5 35 15 41 30 41 19 9 9 5 26 32 29 30 0 12 41 19 16 12 6
split_gain=0.455418 0.412644 0.677526 0.76272 0.746378 0.613554 0.539792 0.517936 0.68352 0.656554 0.932571 0.565521 0.429029 0.418635 0.646606 0.637191 0.776851 0.577924 0.582695 0.443796 0.430216 0.406971 0.516759 0.723436 0.498201 0.571 0.548881 0.87141 0.686629 0.50344
threshold=1.5000000000000002 1.5000000000000002 3.5000000000000004 1.0000000180025095e-35 2.5000000000000004 3.5000000000000004 1.5000000000000002 3.5000000000000004 3.5000000000000004 1.5000000000000002 3.5000000000000004 3.5000000000000004 3.5000000000000004 3.5000000000000004 1.0000000180025095e-35 3.5000000000000004 3.5000000000000004 1.5000000000000002 3.5000000000000004 1.0000000180025095e-35 3.5000000000000004 1.0000000180025095e-35 1.0000000180025095e-35 1.5000000000000002 3.5000000000000004 3.5000000000000004 3.5000000000000004 2.5000000000000004 2.5000000000000004 3.5000000000000004
decision_type=2 2 2 2 2 2 2 2 2 2 2 2 2 2 2 2 2 2 2 2 2 2 2 2 2 2 2 2 2 2
left_child=-1 2 3 -2 7 -5 -3 8 9 -4 -11 12 -10 14 -6 17 19 18 -16 -17 -15 22 23 -8 26 -26 -23 28 -28 -27
right_child=1 6 4 5 13 -7 21 -9 11 10 -12 -13 -14 20 15 16 -18 -19 -20 -21 -22 24 -24 -25 25 29 27 -29 -30 -31
leaf_value=0.00016888043464161848 0.00095054116120209568 0.00021659507939483878 0.002058921958718981 -0.00022875744470938006 0.0023138314130760375 0.00059353163882321168 -0.0017056606931231833 -0.0045516526040855366 -0.0078863938179904534 -0.0038199081244628605 0.0044526508554469709 0.0016887626864693383 -0.0017257548582909458 0.002154807367391287 0.0010281868418897263 0.0018218061753681729 0.00550290584564209 -0.0029787026825307435 -0.0059331509045192181 -0.0026558463899498314 -0.0033801746368408202 -0.00045849707326056568 0.00021723314528948411 0.0072953519454369183 -7.4392633928177992e-05 0.0012266981661023194 -0.0021245181750340065 0.0001425436632648395 -0.006669592830987104 0.0060270117123921718
leaf_weight=23949 2775 4565 175 7480 168 3256 34 163 79 164 43 33 44 287 213 105 70 435 35 117 40 13212 454 65 883 201 314 314 113 75
leaf_count=23949 2775 4565 175 7480 168 3256 34 163 79 164 43 33 44 287 213 105 70 435 35 117 40 13212 454 65 883 201 314 314 113 75
internal_value=-4.5766e-12 -0.000112623 7.98789e-05 0.000211619 -0.000739993 2.06253e-05 -0.000261848 -0.00208251 -0.00133442 -0.000195523 -0.00210145 -0.00412326 -0.00568259 -9.97869e-05 -0.000551102 -0.00104475 0.000910134 -0.00188052 4.574e-05 -0.000538038 0.00147775 -0.000401273 0.000930975 0.0042041 -0.000450024 0.000546077 -0.000532765 -0.00185696 -0.00332731 0.00253113
internal_weight=59861 35912 15682 13511 2171 10736 20230 701 538 382 207 156 123 1470 1143 975 292 683 248 222 327 15665 553 99 15112 1159 13953 741 427 276
internal_count=59861 35912 15682 13511 2171 10736 20230 701 538 382 207 156 123 1470 1143 975 292 683 248 222 327 15665 553 99 15112 1159 13953 741 427 276
is_linear=0
shrinkage=0.05


Tree=23
num_leaves=31
num_cat=0
split_feature=15 26 0 32 6 17 20 41 26 32 5 41 20 33 6 30 41 19 26 23 16 20 12 33 16 5 33 31 20 31
split_gain=0.411015 0.372411 0.611467 0.688356 0.673606 0.553732 0.4718 0.529414 0.399609 0.758849 0.438449 0.384048 1.0804 0.426914 0.485812 0.377818 0.583562 0.575065 0.626238 0.564027 0.609457 0.517816 0.483091 0.455555 0.397716 0.425527 0.370183 0.599238 0.633955 0.486764
threshold=1.5000000000000002 1.5000000000000002 3.5000000000000004 1.0000000180025095e-35 2.5000000000000004 3.5000000000000004 1.0000000180025095e-35 1.5000000000000002 1.0000000180025095e-35 1.5000000000000002 1.5000000000000002 1.0000000180025095e-35 3.5000000000000004 3.5000000000000004 2.5000000000000004 3.5000000000000004 1.0000000180025095e-35 3.5000000000000004 1.0000000180025095e-35 3.5000000000000004 1.5000000000000002 2.5000000000000004 2.5000000000000004 3.5000000000000004 2.5000000000000004 1.0000000180025095e-35 2.5000000000000004 2.5000000000000004 2.5000000000000004 1.5000000000000002
decision_type=2 2 2 2 2 2 2 2 2 2 2 2 2 2 2 2 2 2 2 2 2 2 2 2 2 2 2 2 2 2
left_child=-1 2 3 11 6 -5 8 26 10 -10 -4 12 13 -2 -15 16 -6 21 22 20 -20 -18 23 -19 -17 -26 27 -8 -29 -28
right_child=1 -3 4 5 15 -7 7 -9 9 -11 -12 -13 -14 14 -16 24 17 18 19 -21 -22 -23 -24 -25 25 -27 29 28 -30 -31
leaf_value=0.00016043636177905855 -0.0002001170265047174 -0.0002487552690435269 0.0014833992140160668 -0.000217319493665096 0.0021981392499236837 0.00056385495299496292 -0.0056702781114464917 -0.0040187561542343216 0.0070031113922595983 -0.0022453414364939648 -0.0063757124543190012 0.000710298976038136 0.0099628478981727778 -0.002005315891333989 0.0069808101878975921 -0.00067567891544765895 -0.0028894413692446856 0.0038268911186605695 0.0031570625267922877 0.0032112712887200443 -0.0058726358642751308 -6.8033282899677971e-05 0.0055034077810970222 -0.0048254051085176138 -0.0028306995917643822 0.0038386454442288819 0.0054968821826975704 -0.0031527935731701737 0.0065067646832301694 -0.001983581164809452
leaf_weight=23949 152 20230 36 7480 168 3256 71 313 47 42 35 2506 43 21 53 135 416 32 25 44 74 267 88 29 28 164 43 41 29 44
leaf_count=23949 152 20230 36 7480 168 3256 71 313 47 42 35 2506 43 21 53 135 416 32 25 44 74 267 88 29 28 164 43 41 29 44
internal_value=-3.49072e-13 -0.000106992 7.5885e-05 0.000201038 -0.000702993 1.95941e-05 -0.00197838 -0.00268381 0.00040684 0.00263867 -0.00239081 0.000903014 0.00269835 0.00131617 0.00443069 -9.47975e-05 -0.000523547 -0.000992514 0.000864627 -0.00149897 -0.00359241 -0.00178649 0.00313304 -0.000286496 0.00140386 0.00286603 -0.000851183 -0.00243375 0.000849023 0.00171366
internal_weight=59861 35912 15682 13511 2171 10736 701 541 160 89 71 2775 269 226 74 1470 1143 975 292 143 99 683 149 61 327 192 228 141 70 87
internal_count=59861 35912 15682 13511 2171 10736 701 541 160 89 71 2775 269 226 74 1470 1143 975 292 143 99 683 149 61 327 192 228 141 70 87
is_linear=0
shrinkage=0.05


Tree=24
num_leaves=31
num_cat=0
split_feature=40 34 40 0 30 19 16 33 30 35 26 30 10 10 11 11 26 32 39 41 39 20 36 30 5 33 35 14 23 32
split_gain=0.263565 0.411127 0.396096 0.512155 0.671704 0.482674 0.66134 0.523291 0.622081 0.568672 0.454613 0.392468 0.7415 0.62834 0.39096 0.379585 0.714647 0.528876 0.594259 0.548141 0.612685 0.574881 0.684709 0.827737 0.917153 0.822234 0.76872 0.807506 0.646698 0.579757
threshold=1.5000000000000002 1.0000000180025095e-35 1.0000000180025095e-35 1.5000000000000002 2.5000000000000004 1.5000000000000002 1.0000000180025095e-35 3.5000000000000004 1.0000000180025095e-35 1.5000000000000002 3.5000000000000004 1.0000000180025095e-35 3.5000000000000004 1.5000000000000002 1.5000000000000002 3.5000000000000004 1.5000000000000002 2.5000000000000004 1.5000000000000002 1.0000000180025095e-35 3.5000000000000004 1.0000000180025095e-35 2.5000000000000004 2.5000000000000004 1.0000000180025095e-35 1.5000000000000002 3.5000000000000004 1.5000000000000002 3.5000000000000004 1.0000000180025095e-35
decision_type=2 2 2 2 2 2 2 2 2 2 2 2 2 2 2 2 2 2 2 2 2 2 2 2 2 2 2 2 2 2
left_child=1 2 3 4 -1 6 -5 11 9 -9 -4 12 13 -7 -8 16 -3 19 -19 20 -17 22 -21 24 -24 -25 27 -26 29 -23
right_child=-2 15 10 5 -6 7 14 8 -10 -11 -12 -13 -14 -15 -16 17 -18 18 -20 21 -22 28 23 25 26 -27 -28 -29 -30 -31
leaf_value=0.0031915591552959901 8.5674343168083244e-05 7.2273375085549768e-05 0.00012995523075724758 -0.0063371779024600982 -0.00030557541893078735 -0.0058987460483837387 0.0032822263601701707 0.0022817468374139735 0.00097692190688483563 0.012283954471349716 -0.001995727558009672 0.0010512730837498191 -0.0094998662886412247 0.00022600801139112715 -0.0019048161268746062 0.0011810404890113407 -0.0006140431772933498 0.00030797816159432395 -0.0020991956343466632 0.00086499947930375747 0.0065855139010661361 -0.0015972208876702473 0.005306406473291332 -0.0051004679844929629 -0.013505628474401952 0.001003313219710572 -0.00058198011429006359 -0.0045117064557680811 0.0026127997819367834 0.001060186835177931
leaf_weight=404 35913 6396 1505 60 208 46 54 27 98 30 302 757 23 467 111 180 9320 570 466 600 74 283 29 65 29 365 109 179 444 747
leaf_count=404 35913 6396 1505 60 208 46 54 27 98 30 302 757 23 467 111 180 9320 570 466 600 74 283 29 65 29 365 109 179 444 747
internal_value=-8.56942e-13 -0.000128479 0.000327874 0.000765335 0.00200299 0.000312588 -0.00184189 0.000647365 0.00339267 0.00754607 -0.000225306 0.000318268 -0.000716965 -0.00032319 -0.000207239 -0.000222526 -0.00033473 0.000203415 -0.000774785 0.000529902 0.00275557 0.000331544 -0.000403438 -0.00138419 -0.00320465 8.06486e-05 -0.00398326 -0.00576567 0.00101766 0.000330045
internal_weight=59861 23948 4092 2285 612 1673 225 1448 155 57 1807 1293 536 513 165 19856 15716 4140 1036 3104 254 2850 1376 776 346 430 317 208 1474 1030
internal_count=59861 23948 4092 2285 612 1673 225 1448 155 57 1807 1293 536 513 165 19856 15716 4140 1036 3104 254 2850 1376 776 346 430 317 208 1474 1030
is_linear=0
shrinkage=0.05


Tree=25
num_leaves=31
num_cat=0
split_feature=15 14 25 32 20 16 11 19 34 14 0 12 27 33 39 20 19 0 5 14 20 40 17 32 19 40 27 9 17 40
split_gain=0.371495 0.501585 0.431149 0.678916 0.58454 0.573223 0.542305 0.521448 0.477336 0.445601 0.442752 0.429512 0.583254 0.440753 0.735674 0.452627 0.444037 0.63687 0.4397 0.428769 0.771392 0.552708 0.47128 0.437395 0.696175 0.55798 0.642806 0.551028 0.757963 0.605151
threshold=1.5000000000000002 1.5000000000000002 1.0000000180025095e-35 1.0000000180025095e-35 1.5000000000000002 1.5000000000000002 2.5000000000000004 3.5000000000000004 1.0000000180025095e-35 3.5000000000000004 3.5000000000000004 3.5000000000000004 2.5000000000000004 1.5000000000000002 3.5000000000000004 3.5000000000000004 1.0000000180025095e-35 3.5000000000000004 2.5000000000000004 1.5000000000000002 2.5000000000000004 1.0000000180025095e-35 3.5000000000000004 1.5000000000000002 3.5000000000000004 2.5000000000000004 2.5000000000000004 3.5000000000000004 1.5000000000000002 1.5000000000000002
decision_type=2 2 2 2 2 2 2 2 2 2 2 2 2 2 2 2 2 2 2 2 2 2 2 2 2 2 2 2 2 2
left_child=1 -1 3 -3 5 8 -6 -8 -5 -9 -7 -4 13 16 15 18 17 -13 -15 20 21 -2 -21 25 -25 26 -23 28 29 -26
right_child=19 2 11 4 6 10 7 9 -10 -11 -12 12 -14 14 -16 -17 -18 -19 -20 22 -22 23 -24 24 27 -27 -28 -29 -30 -31
leaf_value=-0.00028379048784660222 0.00065991336151825829 0.0026695788351457513 0.00026654259238410692 0.0059398659194509189 -0.001262711684584888 -0.0056826071497404354 0.00048849855424367903 0.0013635443604510765 -0.0017395376581554264 0.011006939888000489 0.0011359696675624167 0.00031318240165710451 -0.00020973472834722091 0.0016660694603447442 -0.001896852195262909 0.0092903021143542399 0.002174003672891436 -0.0085793991883595776 0.0064772139202399423 -0.00031893390885715639 0.00086611388692254718 -0.00078640227833117143 0.0001428696419576694 0.00037910428098808854 -0.010522231641106118 0.00054663565813326367 -0.0035617692505612096 0.0027508456492796544 -0.00093034827460845317 -0.003273426744748246
leaf_weight=5166 1471 134 16446 24 441 159 171 23 129 25 28 125 438 111 50 45 327 24 83 20389 2935 502 7578 1801 39 306 357 64 360 110
leaf_count=5166 1471 134 16446 24 441 159 171 23 129 25 28 125 438 111 50 45 327 24 83 20389 2935 502 7578 1801 39 306 357 64 360 110
internal_value=-1.53615e-12 0.000152528 0.000272532 -0.000672518 -0.00112036 -0.00280462 -0.000252708 0.00178113 -0.000534925 0.00638615 -0.00466164 0.000333254 0.00124525 0.00207831 0.00361856 0.00477241 0.00114315 -0.00111918 0.00372445 -0.000101718 0.000222426 -0.000154665 -0.000193803 -0.000493248 -0.000103854 -0.00128674 -0.00193984 -0.00162184 -0.00217165 -0.00517076
internal_weight=59861 23949 18783 1134 1000 340 660 219 153 48 187 17649 1203 765 289 239 476 149 194 35912 7945 5010 27967 3539 2374 1165 859 573 509 149
internal_count=59861 23949 18783 1134 1000 340 660 219 153 48 187 17649 1203 765 289 239 476 149 194 35912 7945 5010 27967 3539 2374 1165 859 573 509 149
is_linear=0
shrinkage=0.05


Tree=26
num_leaves=31
num_cat=0
split_feature=33 6 35 32 5 19 34 14 36 33 12 39 16 32 9 11 5 12 0 32 20 26 16 39 25 5 33 39 5 20
split_gain=0.262919 0.326957 0.794224 0.783498 0.873117 0.820449 0.625654 0.607728 0.597473 0.592327 0.51845 0.804904 1.57623 0.550829 0.543307 0.482119 0.60406 0.604954 0.576596 0.572595 0.464064 1.6391 0.897924 0.533335 0.625301 0.480188 0.449054 0.42367 0.4466 1.19258
threshold=1.0000000180025095e-35 1.0000000180025095e-35 2.5000000000000004 1.5000000000000002 2.5000000000000004 3.5000000000000004 3.5000000000000004 1.0000000180025095e-35 2.5000000000000004 2.5000000000000004 1.5000000000000002 3.5000000000000004 1.5000000000000002 3.5000000000000004 3.5000000000000004 1.5000000000000002 1.0000000180025095e-35 2.5000000000000004 1.5000000000000002 3.5000000000000004 1.5000000000000002 2.5000000000000004 1.0000000180025095e-35 3.5000000000000004 3.5000000000000004 3.5000000000000004 2.5000000000000004 3.5000000000000004 1.0000000180025095e-35 1.0000000180025095e-35
decision_type=2 2 2 2 2 2 2 2 2 2 2 2 2 2 2 2 2 2 2 2 2 2 2 2 2 2 2 2 2 2
left_child=-1 2 3 20 10 6 -6 -4 -9 -10 14 15 -13 -14 27 16 17 -12 -18 -19 21 -2 25 -24 -25 -22 -8 28 29 -5
right_child=1 -3 7 4 5 -7 26 8 9 -11 11 12 13 -15 -16 -17 18 19 -20 -21 22 -23 23 24 -26 -27 -28 -29 -30 -31
leaf_value=-0.00020945671772347663 0.0021765263890727239 -2.7004898843914495e-06 -0.0013352309503862937 0.0052367909447006561 0.001779970723533429 0.0069819858376408972 0.00068242828169002624 0.0017997200638849827 -0.00094748701657948453 0.0017570442931596623 0.00022691052995230023 0.0030271095508023313 -0.0029398813582303235 -0.0088585629065831509 0.0047755543142557148 0.0016401715177000711 -0.0056115593167318824 0.012254541739821434 -0.00051927767120874848 0.0017298199236392975 -0.0036231497350411538 -0.0028100882673097408 -0.0016791918535124174 0.0035373813576168485 -0.0044203940778970718 -0.010604342818260193 -0.0081948301621845784 0.001130632252505656 -0.0014306279415843869 -0.0073232641759908429
leaf_weight=11983 387 40644 248 23 665 71 29 1689 492 344 133 95 114 60 32 783 69 24 286 28 78 287 660 108 32 36 28 89 238 106
leaf_count=11983 387 40644 248 23 665 71 29 1689 492 344 133 95 114 60 32 783 69 24 286 28 78 287 660 108 32 36 28 89 238 106
internal_value=4.14154e-12 5.24232e-05 0.000362134 -5.09237e-05 0.000441717 0.00185339 0.00134905 0.00102663 0.00125861 0.000165382 -9.64826e-05 0.000340566 -0.00215273 -0.00498081 -0.00152226 0.000847518 -0.00030183 0.00201472 -0.00150905 0.00658738 -0.000942206 5.3146e-05 -0.0016762 -0.0010846 0.00171846 -0.00582774 -0.00367833 -0.00196422 -0.00271474 -0.00508387
internal_weight=59861 47878 7234 4461 2873 793 722 2773 2525 836 2080 1592 269 174 488 1323 540 185 355 52 1588 674 914 800 140 114 57 456 367 129
internal_count=59861 47878 7234 4461 2873 793 722 2773 2525 836 2080 1592 269 174 488 1323 540 185 355 52 1588 674 914 800 140 114 57 456 367 129
is_linear=0
shrinkage=0.05


Tree=27
num_leaves=31
num_cat=0
split_feature=15 14 26 20 12 27 0 0 35 32 16 35 20 0 14 10 35 36 32 12 6 35 16 9 39 9 12 10 12 15
split_gain=0.332156 0.445056 0.406117 0.82236 0.692068 0.516201 0.524673 0.396572 0.706549 0.817256 0.927554 0.574401 0.556561 0.671341 0.824692 0.570162 0.536396 0.569775 0.559187 0.689749 0.532642 0.613469 0.517606 0.547899 0.50695 1.04756 0.708662 0.500301 0.498347 0.615766
threshold=1.5000000000000002 1.5000000000000002 3.5000000000000004 2.5000000000000004 1.5000000000000002 3.5000000000000004 1.5000000000000002 1.0000000180025095e-35 3.5000000000000004 3.5000000000000004 1.0000000180025095e-35 1.5000000000000002 1.5000000000000002 2.5000000000000004 1.0000000180025095e-35 1.0000000180025095e-35 1.5000000000000002 1.5000000000000002 2.5000000000000004 1.0000000180025095e-35 3.5000000000000004 1.0000000180025095e-35 3.5000000000000004 1.0000000180025095e-35 1.5000000000000002 1.0000000180025095e-35 2.5000000000000004 1.5000000000000002 1.5000000000000002 1.0000000180025095e-35
decision_type=2 2 2 2 2 2 2 2 2 2 2 2 2 2 2 2 2 2 2 2 2 2 2 2 2 2 2 2 2 2
left_child=1 2 7 -4 -5 -6 -7 8 9 10 11 -1 16 22 -15 -16 17 -9 19 -18 21 27 -14 -24 25 -11 -26 -19 -17 -30
right_child=-2 -3 3 4 5 6 -8 12 -10 24 -12 -13 13 14 15 28 18 20 -20 -21 -22 -23 23 -25 26 -27 -28 -29 29 -31
leaf_value=-0.0087146104454691436 -9.6181751386336973e-05 0.00025726542751838469 0.00017987866654250634 -0.00065005736938421278 -0.0030421358553362099 -0.011259984135151257 -0.0014575190912000835 0.0021603986732941821 -0.0035795829959751405 -0.001572915122789495 0.0012729109517765087 -0.00078178270296617005 0.0013885859621400947 0.0014143595007165099 0.0020165530105049792 -0.0037624902757150791 -0.0074916964725536455 -0.0094255903187920077 0.00022292354069979845 -0.001846742978635824 0.0061860001605489982 0.00070526541471481333 -0.002435631056626638 0.0064185576226848829 0.0018930381406908451 -0.015389247109060703 -0.0058365449309349064 -0.0023063123060597314 0.0030572885900367924 -0.0023853021860122683
leaf_weight=39 35912 18783 623 276 231 43 20 266 194 34 593 55 589 549 104 224 68 34 226 265 23 125 21 104 69 23 52 90 81 145
leaf_count=39 35912 18783 623 276 231 43 20 266 194 34 593 55 589 549 104 224 68 34 226 265 23 125 21 104 69 23 52 90 81 145
internal_value=-4.92089e-12 0.000144226 -0.000266771 -0.00107579 -0.00244821 -0.00413627 -0.00814809 -2.38417e-05 -0.000852487 -0.00024086 0.000541439 -0.00407306 0.000277303 0.00081422 4.09598e-05 -0.00132004 -0.000612012 0.000514989 -0.00169668 -0.00299947 -0.00109412 -0.00176659 0.00200877 0.00493105 -0.00326018 -0.00714793 -0.00142877 -0.00425837 -0.00209117 -0.000434639
internal_weight=59861 23949 5166 1193 570 294 63 3973 1059 865 687 94 2914 1817 1103 554 1097 538 559 333 272 249 714 125 178 57 121 124 450 226
internal_count=59861 23949 5166 1193 570 294 63 3973 1059 865 687 94 2914 1817 1103 554 1097 538 559 333 272 249 714 125 178 57 121 124 450 226
is_linear=0
shrinkage=0.05


Tree=28
num_leaves=31
num_cat=0
split_feature=15 35 30 16 6 20 23 35 19 16 35 25 23 6 5 39 36 35 25 9 30 14 33 6 25 31 0 29 29 33
split_gain=0.30927 0.45555 0.593275 0.6279 1.00727 1.05442 0.702194 0.629 0.560018 0.931492 0.646556 0.687944 0.551986 0.536001 0.652339 0.987368 0.605891 0.501389 0.51349 0.471117 0.463415 0.438271 0.430247 0.499428 0.394145 0.530381 0.710724 0.530059 0.637065 0.493387
threshold=1.0000000180025095e-35 1.5000000000000002 3.5000000000000004 1.0000000180025095e-35 1.5000000000000002 1.0000000180025095e-35 1.5000000000000002 3.5000000000000004 2.5000000000000004 1.5000000000000002 2.5000000000000004 1.0000000180025095e-35 1.0000000180025095e-35 1.0000000180025095e-35 3.5000000000000004 1.5000000000000002 1.0000000180025095e-35 3.5000000000000004 1.5000000000000002 3.5000000000000004 2.5000000000000004 3.5000000000000004 3.5000000000000004 2.5000000000000004 1.0000000180025095e-35 3.5000000000000004 2.5000000000000004 3.5000000000000004 1.0000000180025095e-35 1.5000000000000002
decision_type=2 2 2 2 2 2 2 2 2 2 2 2 2 2 2 2 2 2 2 2 2 2 2 2 2 2 2 2 2 2
left_child=1 24 3 12 -5 7 20 19 10 -10 11 -4 -3 14 -14 -16 -15 18 -18 -6 -7 -8 23 -9 27 -26 -27 28 -1 -28
right_child=-2 2 8 4 5 6 21 22 9 -11 -12 -13 13 16 15 -17 17 -19 -20 -21 -22 -23 -24 -25 25 26 29 -29 -30 -31
leaf_value=0.0034633132768794894 -5.6856685406014692e-05 0.0033440238237380984 -0.0070350215352814778 0.00049529474630241328 -0.0034639473975403238 -0.0032641047057712378 0.00015654958124402204 -0.012539684928433839 0.0039076732433572106 -0.0017889773890153685 0.002970086873863438 0.00098222266301254313 0.0002391479020568175 -0.0045019032948307299 0.003497441177782805 -0.0090603642317713517 0.0070334389576438205 -4.4460935035937936e-05 0.0022248834183290142 0.0032362129426363739 0.00031336270161529085 0.0050651567931077925 -0.0013284134368101756 -0.0042901810025796298 -9.0147482396661573e-05 0.0059764570600929715 -0.0054075751977507025 0.0031264490810119444 -0.0028457509255084487 0.0033726107387337836
leaf_weight=45 47878 250 29 2894 128 279 632 43 98 268 649 346 307 38 23 49 67 197 324 33 134 49 24 32 4482 84 32 54 361 32
leaf_count=45 47878 250 29 2894 128 279 632 43 98 268 649 346 307 38 23 49 67 197 324 33 134 49 24 32 4482 84 32 54 361 32
internal_value=6.62307e-12 0.000227171 0.000492088 0.000258956 -3.13428e-05 -0.00115696 -0.000476748 -0.00401909 0.00141505 -0.000263645 0.00201506 0.000362222 0.00124158 0.00071858 -0.000765431 -0.00504884 0.00161705 0.00201249 0.00304886 -0.00209062 -0.00210338 0.000509739 -0.00715529 -0.0090199 -0.000131587 7.09774e-06 0.00295205 -0.00152748 -0.00214647 -0.00101748
internal_weight=59861 11983 6893 5503 4248 1354 1094 260 1390 366 1024 375 1255 1005 379 72 626 588 391 161 413 681 99 75 5090 4630 148 460 406 64
internal_count=59861 11983 6893 5503 4248 1354 1094 260 1390 366 1024 375 1255 1005 379 72 626 588 391 161 413 681 99 75 5090 4630 148 460 406 64
is_linear=0
shrinkage=0.05


Tree=29
num_leaves=31
num_cat=0
split_feature=27 9 12 32 26 20 16 32 33 6 14 35 39 33 6 20 29 39 35 9 6 11 17 33 6 14 10 39 32 30
split_gain=0.257614 0.481091 0.573883 1.00582 0.860438 0.658733 0.602174 0.531716 0.677392 0.749442 0.61594 0.783223 1.27633 1.29496 0.606489 0.982007 0.553949 0.69618 0.531238 0.508417 0.495838 0.564273 0.639181 0.638266 0.495461 0.494237 0.507579 0.488117 0.487432 0.464176
threshold=3.5000000000000004 1.5000000000000002 3.5000000000000004 1.0000000180025095e-35 1.5000000000000002 2.5000000000000004 1.0000000180025095e-35 1.5000000000000002 3.5000000000000004 3.5000000000000004 1.5000000000000002 1.5000000000000002 2.5000000000000004 2.5000000000000004 3.5000000000000004 3.5000000000000004 1.0000000180025095e-35 1.5000000000000002 1.0000000180025095e-35 2.5000000000000004 2.5000000000000004 2.5000000000000004 3.5000000000000004 1.5000000000000002 1.5000000000000002 2.5000000000000004 1.5000000000000002 1.5000000000000002 2.5000000000000004 3.5000000000000004
decision_type=2 2 2 2 2 2 2 2 2 2 2 2 2 2 2 2 2 2 2 2 2 2 2 2 2 2 2 2 2 2
left_child=-1 2 18 -4 5 -5 -6 8 -3 -10 11 12 -9 -14 -13 19 17 -12 -2 -16 -20 23 29 -22 -8 -11 -27 -7 -19 -23
right_child=1 7 3 4 6 27 24 10 9 25 16 14 13 -15 15 -17 -18 28 20 -21 21 22 -24 -25 -26 26 -28 -29 -30 -31
leaf_value=-5.1872716178007619e-05 -0.0019705360995297054 -0.00050394343747564455 0.0062263605269518773 -0.0090804877537792855 0.0026671435775872518 0.0014677536717892902 0.0020208887755870822 0.0089576357509940866 0.0019849041502222379 -0.0011581197698741581 -0.0085728501578528644 0.00021652998592780562 0.0066416735832507791 -0.0064161925702481658 0.0016634529689326884 -0.0036786781115965409 0.00067191241615704523 0.0052295429296254255 0.00070359967491963392 0.008518173027857158 0.0029892480270021916 -0.0048313299164722103 -0.00020748526731893813 -0.00028032404918442756 -0.0050237900481141847 0.0072705258791511129 0.00037748205165068308 -0.007936962976501408 -0.0045485748448409148 -0.00053939610085588824
leaf_weight=47885 326 2293 33 76 76 37 35 96 734 469 37 392 39 37 42 33 3067 26 1898 76 173 191 341 1088 87 37 96 22 25 94
leaf_count=47885 326 2293 33 76 76 37 35 96 734 469 37 392 39 37 42 33 3067 26 1898 76 173 191 341 1088 87 37 96 22 25 94
internal_value=2.29934e-12 0.000207409 -0.000202735 -0.00209997 -0.0029251 -0.00600314 -0.000826443 0.00045227 1.74888e-05 0.000912432 0.000859975 0.00218502 0.00512534 0.000284555 0.00125365 0.00394603 0.000559687 -0.00335161 -3.38251e-05 0.00607836 0.000132983 -0.00044096 -0.00166811 0.000168237 -0.00300278 -0.0003952 0.0022951 -0.00203909 0.000436348 -0.00341574
internal_weight=59861 11976 4477 366 333 135 198 7499 3629 1336 3870 715 172 76 543 151 3155 88 4111 118 3785 1887 626 1261 122 602 133 59 51 285
internal_count=59861 11976 4477 366 333 135 198 7499 3629 1336 3870 715 172 76 543 151 3155 88 4111 118 3785 1887 626 1261 122 602 133 59 51 285
is_linear=0
shrinkage=0.05


Tree=30
num_leaves=31
num_cat=0
split_feature=15 14 29 25 35 9 10 39 25 6 40 29 5 9 14 20 40 26 0 41 12 29 36 9 25 27 6 25 23 10
split_gain=0.284445 0.401504 0.423421 0.621044 0.472002 0.647825 0.521171 0.657921 0.628795 0.465863 0.657653 0.621691 0.53445 0.396351 0.381719 0.699517 0.501821 0.467873 0.569335 0.543469 0.505397 0.439082 0.437552 0.424182 0.809329 0.508464 0.448423 0.442046 0.657787 0.435965
threshold=1.5000000000000002 1.5000000000000002 2.5000000000000004 3.5000000000000004 3.5000000000000004 2.5000000000000004 3.5000000000000004 2.5000000000000004 1.0000000180025095e-35 1.0000000180025095e-35 2.5000000000000004 1.0000000180025095e-35 2.5000000000000004 2.5000000000000004 1.5000000000000002 2.5000000000000004 1.0000000180025095e-35 1.0000000180025095e-35 1.0000000180025095e-35 2.5000000000000004 3.5000000000000004 3.5000000000000004 2.5000000000000004 2.5000000000000004 2.5000000000000004 2.5000000000000004 2.5000000000000004 3.5000000000000004 3.5000000000000004 3.5000000000000004
decision_type=2 2 2 2 2 2 2 2 2 2 2 2 2 2 2 2 2 2 2 2 2 2 2 2 2 2 2 2 2 2
left_child=1 2 3 -1 6 -6 -4 8 -8 11 12 13 -11 -5 15 16 23 19 22 20 -17 -21 -19 27 25 26 29 -2 -29 -25
right_child=14 -3 4 9 5 -7 7 -9 -10 10 -12 -13 -14 -15 -16 17 -18 18 -20 21 -22 -23 -24 24 -26 -27 -28 28 -30 -31
leaf_value=-0.00083050889494644961 0.00053443705960874645 0.00024083272175610414 0.0017470181621189686 -0.0023759211762808263 -0.0047542936346504127 0.0013865620975034784 -0.010824136842380871 0.0024788803139398265 -0.0016518269154813985 0.0017095724671659337 0.0037678484244369221 0.00033619880502204448 -0.0024515843957908885 -0.010132577108300251 -0.00017589174495280594 0.0028108764656990634 -0.00046487713675271255 -0.0024900947879272629 0.00087619842411239984 0.0013749446625923546 0.0087899273350125259 -0.004294645614725979 0.00072990935500506521 0.0029317796328350121 0.0033959786598614715 0.0029836705097785361 -0.0039443671181797983 -0.00078836531372544197 -0.0081815503739021932 -0.0030441576359318753
leaf_weight=3129 638 18783 694 58 89 83 22 86 124 213 211 313 121 23 27967 223 3539 251 1862 337 42 38 182 76 317 91 100 161 37 51
leaf_count=3129 638 18783 694 58 89 83 22 86 124 213 211 313 121 23 27967 223 3539 251 1862 337 42 38 182 76 317 91 100 161 37 51
internal_value=-1.27996e-12 0.000133467 -0.000256903 -0.000492078 0.000614398 -0.00179097 0.00106118 -0.000990404 -0.00303396 0.000635666 0.00158259 -0.000674169 0.000202087 -0.00457843 -8.90064e-05 0.000216836 -0.000142257 0.000829804 0.000496432 0.00202525 0.0037585 0.000800426 -0.00113665 0.000633917 0.00160814 -0.000174086 -0.00143997 -0.000106069 -0.00216992 0.000531994
internal_weight=59861 23949 5166 4068 1098 172 926 232 146 939 545 394 334 81 35912 7945 5010 2935 2295 640 265 375 433 1471 635 318 227 836 198 127
internal_count=59861 23949 5166 4068 1098 172 926 232 146 939 545 394 334 81 35912 7945 5010 2935 2295 640 265 375 433 1471 635 318 227 836 198 127
is_linear=0
shrinkage=0.05


Tree=31
num_leaves=31
num_cat=0
split_feature=15 16 32 11 5 32 26 14 9 27 11 29 36 33 5 14 33 11 27 23 34 11 19 29 26 31 31 12 40 5
split_gain=0.264053 0.413562 0.787069 0.755601 1.20087 0.73876 0.57604 0.546896 0.527935 0.51442 0.494208 1.12745 0.479258 0.533366 0.655167 0.574248 0.513213 0.674681 0.47569 0.975034 0.751617 0.711821 0.614607 0.513671 0.503465 0.932753 0.696188 0.574568 0.485862 0.471594
threshold=1.0000000180025095e-35 1.5000000000000002 1.5000000000000002 3.5000000000000004 1.0000000180025095e-35 3.5000000000000004 1.0000000180025095e-35 2.5000000000000004 2.5000000000000004 1.0000000180025095e-35 2.5000000000000004 1.0000000180025095e-35 1.0000000180025095e-35 3.5000000000000004 1.0000000180025095e-35 1.5000000000000002 1.0000000180025095e-35 1.5000000000000002 2.5000000000000004 2.5000000000000004 3.5000000000000004 1.5000000000000002 3.5000000000000004 2.5000000000000004 2.5000000000000004 1.0000000180025095e-35 1.0000000180025095e-35 1.5000000000000002 1.0000000180025095e-35 2.5000000000000004
decision_type=2 2 2 2 2 2 2 2 2 2 2 2 2 2 2 2 2 2 2 2 2 2 2 2 2 2 2 2 2 2
left_child=1 2 3 6 8 18 -1 -8 -5 -6 -4 -12 13 14 -7 -16 17 -14 20 21 23 -20 -21 -3 26 -26 -23 28 -27 -17
right_child=-2 5 10 4 9 12 7 -9 -10 -11 11 -13 16 -15 15 29 -18 -19 19 22 -22 24 -24 -25 25 27 -28 -29 -30 -31
leaf_value=0.0017273998241530101 -5.2536202929134359e-05 0.00061759099798288069 0.00071514760961849291 0.0049727050960063938 -0.0042413768668969473 0.0031244792241053097 -0.0018236132931682561 0.00068570498493905683 0.014921965599060059 0.0015197814103975818 0.011565207600248076 0.0018009251500166032 0.0017303271943496332 -0.0075278293002735489 -0.0052727598269454775 0.0015939024871554953 -0.0012301436357712938 -0.0059443558965410507 0.00022504217022858956 0.00090186146165010476 -0.0016694325920361193 0.0037258839822913469 0.0075111331166447821 0.0028386906887373086 -0.0076225540405789093 -0.012263227961957454 -0.0013745529960327799 -0.00091012408641668479 -0.0034798892164552538 -0.0038521969796351668
leaf_weight=194 47878 2799 2379 40 48 149 892 287 20 201 31 638 36 22 61 159 494 140 828 713 335 76 37 287 86 20 559 325 74 53
leaf_count=194 47878 2799 2379 40 48 149 892 287 20 201 31 638 36 22 61 159 494 140 828 713 335 76 37 287 86 20 559 325 74 53
internal_value=1.83039e-13 0.000209908 0.000573644 -0.000294597 0.00193928 -2.73e-05 -0.000797342 -0.00121278 0.00828913 0.000409197 0.00105277 0.00225338 -0.00121189 6.2074e-05 0.000457756 -0.000997708 -0.00205613 -0.00437453 0.000187659 -0.000306122 0.000579971 -0.000890742 0.00122792 0.000824155 -0.00170115 -0.00287942 -0.000764107 -0.00190589 -0.00534868 0.000232378
internal_weight=59861 11983 4730 1682 309 7253 1373 1179 60 249 3048 669 1114 444 422 273 670 176 6139 2718 3421 1968 750 3086 1140 505 635 419 94 212
internal_count=59861 11983 4730 1682 309 7253 1373 1179 60 249 3048 669 1114 444 422 273 670 176 6139 2718 3421 1968 750 3086 1140 505 635 419 94 212
is_linear=0
shrinkage=0.05


Tree=32
num_leaves=31
num_cat=0
split_feature=33 10 9 11 26 23 0 29 16 14 23 33 32 17 5 0 17 0 14 25 25 16 10 0 32 0 15 20 31 17
split_gain=0.24357 0.336449 0.513887 0.887896 0.743261 0.681666 0.673047 0.644973 0.677737 0.621619 0.554091 0.571856 0.545517 0.671212 0.615571 0.502432 0.491673 0.636846 0.478408 0.46832 0.545044 0.409903 0.335137 0.551724 0.626143 0.530014 0.560047 0.661796 0.666509 0.416355
threshold=1.0000000180025095e-35 3.5000000000000004 3.5000000000000004 1.5000000000000002 2.5000000000000004 1.5000000000000002 1.5000000000000002 2.5000000000000004 2.5000000000000004 3.5000000000000004 1.0000000180025095e-35 3.5000000000000004 1.0000000180025095e-35 2.5000000000000004 1.5000000000000002 3.5000000000000004 3.5000000000000004 1.5000000000000002 1.0000000180025095e-35 2.5000000000000004 3.5000000000000004 3.5000000000000004 1.0000000180025095e-35 1.5000000000000002 2.5000000000000004 1.0000000180025095e-35 1.0000000180025095e-35 2.5000000000000004 1.0000000180025095e-35 1.5000000000000002
decision_type=2 2 2 2 2 2 2 2 2 2 2 2 2 2 2 2 2 2 2 2 2 2 2 2 2 2 2 2 2 2
left_child=22 -2 10 7 12 6 -6 9 19 16 11 -3 13 -5 -14 -16 17 -4 -19 -9 -21 -7 25 24 29 26 -1 28 -28 -24
right_child=1 2 3 4 5 21 -8 8 -10 -11 -12 -13 14 -15 15 -17 -18 18 -20 20 -22 -23 23 -25 -26 -27 27 -29 -30 -31
leaf_value=7.180906664996379e-05 9.7210901116137789e-05 0.00036174302023340326 -0.0037492593387250758 -6.6149036089579275e-05 0.0056461316272616389 0.0031430830977049219 -0.005230135216631673 -0.0028639783617782763 0.0099893860842870646 0.0030353811383247377 -0.0008204084373077407 0.0059093739472183531 -0.0014376392588019372 -0.0091382666357925964 0.0016301789370022322 0.0077064875161872715 -0.0068598484965386218 -0.002597055965187875 0.0030207686209946538 0.0066655080915532187 -0.002320437933559771 0.007964718880805563 0.0017414069152992036 -0.00029499065364003757 -0.00040450839134187995 -0.00035396471387681336 -0.0076157793359016073 -0.0067885231193715494 0.00082362932474191845 -0.00039616157508797666
leaf_weight=128 42580 521 179 75 25 83 33 54 23 60 3553 51 90 28 95 53 54 66 89 45 27 94 1049 8312 943 1028 32 113 87 291
leaf_count=128 42580 521 179 75 25 83 33 54 23 60 3553 51 90 28 95 53 54 66 89 45 27 94 1049 8312 943 1028 32 113 87 291
